<?xml version="1.0"?>
<MethodSetup Method="Category::JetID_puchsv4">
  <GeneralInfo>
    <Info name="TMVA Release" value="4.1.2 [262402]"/>
    <Info name="ROOT Release" value="5.32/00 [335872]"/>
    <Info name="Creator" value="pharris"/>
    <Info name="Date" value="Tue Apr 30 06:21:57 2013"/>
    <Info name="Host" value="Linux lxbuild168.cern.ch 2.6.18-308.1.1.el5 #1 SMP Wed Mar 7 19:25:07 CET 2012 x86_64 x86_64 x86_64 GNU/Linux"/>
    <Info name="Dir" value="/afs/cern.ch/work/p/pharris/Train"/>
    <Info name="Training events" value="819389"/>
    <Info name="TrainingTime" value="5.00361947e+03"/>
    <Info name="AnalysisType" value="Classification"/>
  </GeneralInfo>
  <Options>
    <Option name="V" modified="No">False</Option>
    <Option name="VerbosityLevel" modified="No">Default</Option>
    <Option name="VarTransform" modified="No">None</Option>
    <Option name="H" modified="No">False</Option>
    <Option name="CreateMVAPdfs" modified="No">False</Option>
    <Option name="IgnoreNegWeightsInTraining" modified="No">False</Option>
  </Options>
  <Variables NVar="13">
    <Variable VarIndex="0" Expression="nvtx" Label="nvtx" Title="nvtx" Unit="" Internal="nvtx" Type="F" Min="1.00000000e+00" Max="5.70000000e+01"/>
    <Variable VarIndex="1" Expression="dZ" Label="dZ" Title="dZ" Unit="" Internal="dZ" Type="F" Min="-1.00000000e+03" Max="8.41788788e+01"/>
    <Variable VarIndex="2" Expression="beta" Label="beta" Title="beta" Unit="" Internal="beta" Type="F" Min="0.00000000e+00" Max="1.00000000e+00"/>
    <Variable VarIndex="3" Expression="betaStar" Label="betaStar" Title="betaStar" Unit="" Internal="betaStar" Type="F" Min="0.00000000e+00" Max="1.00000000e+00"/>
    <Variable VarIndex="4" Expression="nCharged" Label="nCharged" Title="nCharged" Unit="" Internal="nCharged" Type="I" Min="0.00000000e+00" Max="5.70000000e+01"/>
    <Variable VarIndex="5" Expression="nNeutrals" Label="nNeutrals" Title="nNeutrals" Unit="" Internal="nNeutrals" Type="I" Min="0.00000000e+00" Max="6.30000000e+01"/>
    <Variable VarIndex="6" Expression="dR2Mean" Label="dR2Mean" Title="dR2Mean" Unit="" Internal="dR2Mean" Type="F" Min="0.00000000e+00" Max="1.93455786e-01"/>
    <Variable VarIndex="7" Expression="ptD" Label="ptD" Title="ptD" Unit="" Internal="ptD" Type="F" Min="1.56052530e-01" Max="1.00000000e+00"/>
    <Variable VarIndex="8" Expression="frac01" Label="frac01" Title="frac01" Unit="" Internal="frac01" Type="F" Min="0.00000000e+00" Max="1.00325012e+00"/>
    <Variable VarIndex="9" Expression="frac02" Label="frac02" Title="frac02" Unit="" Internal="frac02" Type="F" Min="0.00000000e+00" Max="1.00259531e+00"/>
    <Variable VarIndex="10" Expression="frac03" Label="frac03" Title="frac03" Unit="" Internal="frac03" Type="F" Min="0.00000000e+00" Max="9.79178607e-01"/>
    <Variable VarIndex="11" Expression="frac04" Label="frac04" Title="frac04" Unit="" Internal="frac04" Type="F" Min="0.00000000e+00" Max="8.10098767e-01"/>
    <Variable VarIndex="12" Expression="frac05" Label="frac05" Title="frac05" Unit="" Internal="frac05" Type="F" Min="0.00000000e+00" Max="6.28648043e-01"/>
  </Variables>
  <Spectators NSpec="3">
    <Spectator SpecIndex="0" Expression="jetPt" Label="jetPt" Title="F" Unit="" Internal="jetPt" Type="F" Min="2.00000038e+01" Max="9.43001892e+02"/>
    <Spectator SpecIndex="1" Expression="jetEta" Label="jetEta" Title="F" Unit="" Internal="jetEta" Type="F" Min="-4.99971056e+00" Max="4.99989510e+00"/>
    <Spectator SpecIndex="2" Expression="jetPhi" Label="jetPhi" Title="F" Unit="" Internal="jetPhi" Type="F" Min="-3.14159036e+00" Max="3.14158297e+00"/>
  </Spectators>
  <Classes NClass="2">
    <Class Name="Signal" Index="0"/>
    <Class Name="Background" Index="1"/>
  </Classes>
  <Transformations NTransformations="0"/>
  <MVAPdfs/>
  <Weights NSubMethods="4">
    <SubMethod Index="0" Method="BDT::HighPtTK" Cut="jetPt &gt; -20.0 &amp;&amp; abs(jetEta) &lt; 2.5" Variables="nvtx:dZ:beta:betaStar:nCharged:nNeutrals:dR2Mean:ptD:frac01:frac02:frac03:frac04:frac05">
      <GeneralInfo>
        <Info name="TMVA Release" value="4.1.2 [262402]"/>
        <Info name="ROOT Release" value="5.32/00 [335872]"/>
        <Info name="Creator" value="pharris"/>
        <Info name="Date" value="Tue Apr 30 06:21:57 2013"/>
        <Info name="Host" value="Linux lxbuild168.cern.ch 2.6.18-308.1.1.el5 #1 SMP Wed Mar 7 19:25:07 CET 2012 x86_64 x86_64 x86_64 GNU/Linux"/>
        <Info name="Dir" value="/afs/cern.ch/work/p/pharris/Train"/>
        <Info name="Training events" value="540041"/>
        <Info name="TrainingTime" value="3.13595073e+03"/>
        <Info name="AnalysisType" value="Classification"/>
      </GeneralInfo>
      <Options>
        <Option name="V" modified="Yes">False</Option>
        <Option name="VerbosityLevel" modified="No">Default</Option>
        <Option name="VarTransform" modified="No">None</Option>
        <Option name="H" modified="Yes">False</Option>
        <Option name="CreateMVAPdfs" modified="No">False</Option>
        <Option name="IgnoreNegWeightsInTraining" modified="No">False</Option>
        <Option name="NTrees" modified="Yes">2000</Option>
        <Option name="RenormByClass" modified="No">False</Option>
        <Option name="BoostType" modified="Yes">Grad</Option>
        <Option name="AdaBoostR2Loss" modified="No">quadratic</Option>
        <Option name="UseBaggedGrad" modified="Yes">False</Option>
        <Option name="GradBaggingFraction" modified="No">6.000000e-01</Option>
        <Option name="Shrinkage" modified="Yes">1.000000e-01</Option>
        <Option name="AdaBoostBeta" modified="No">1.000000e+00</Option>
        <Option name="UseRandomisedTrees" modified="No">False</Option>
        <Option name="UseNvars" modified="No">4</Option>
        <Option name="UsePoissonNvars" modified="No">True</Option>
        <Option name="UseNTrainEvents" modified="No">540041</Option>
        <Option name="UseWeightedTrees" modified="No">True</Option>
        <Option name="UseYesNoLeaf" modified="Yes">False</Option>
        <Option name="NodePurityLimit" modified="No">5.000000e-01</Option>
        <Option name="SeparationType" modified="No">giniindex</Option>
        <Option name="nEventsMin" modified="Yes">10000</Option>
        <Option name="nCuts" modified="Yes">2000</Option>
        <Option name="UseFisherCuts" modified="No">False</Option>
        <Option name="MinLinCorrForFisher" modified="No">8.000000e-01</Option>
        <Option name="UseExclusiveVars" modified="No">False</Option>
        <Option name="PruneStrength" modified="No">0.000000e+00</Option>
        <Option name="PruneMethod" modified="No">nopruning</Option>
        <Option name="PruneBeforeBoost" modified="No">False</Option>
        <Option name="PruningValFraction" modified="No">5.000000e-01</Option>
        <Option name="NNodesMax" modified="Yes">100000</Option>
        <Option name="MaxDepth" modified="Yes">3</Option>
        <Option name="DoBoostMonitor" modified="No">False</Option>
        <Option name="NegWeightTreatment" modified="No">ignorenegweights</Option>
      </Options>
      <Variables NVar="13">
        <Variable VarIndex="0" Expression="nvtx" Label="nvtx" Title="nvtx" Unit="" Internal="nvtx" Type="F" Min="1.00000000e+00" Max="5.40000000e+01"/>
        <Variable VarIndex="1" Expression="dZ" Label="dZ" Title="dZ" Unit="" Internal="dZ" Type="F" Min="-1.00000000e+03" Max="8.33568344e+01"/>
        <Variable VarIndex="2" Expression="beta" Label="beta" Title="beta" Unit="" Internal="beta" Type="F" Min="0.00000000e+00" Max="1.00000000e+00"/>
        <Variable VarIndex="3" Expression="betaStar" Label="betaStar" Title="betaStar" Unit="" Internal="betaStar" Type="F" Min="0.00000000e+00" Max="1.00000000e+00"/>
        <Variable VarIndex="4" Expression="nCharged" Label="nCharged" Title="nCharged" Unit="" Internal="nCharged" Type="I" Min="0.00000000e+00" Max="5.70000000e+01"/>
        <Variable VarIndex="5" Expression="nNeutrals" Label="nNeutrals" Title="nNeutrals" Unit="" Internal="nNeutrals" Type="I" Min="0.00000000e+00" Max="6.30000000e+01"/>
        <Variable VarIndex="6" Expression="dR2Mean" Label="dR2Mean" Title="dR2Mean" Unit="" Internal="dR2Mean" Type="F" Min="0.00000000e+00" Max="1.50842711e-01"/>
        <Variable VarIndex="7" Expression="ptD" Label="ptD" Title="ptD" Unit="" Internal="ptD" Type="F" Min="1.52179345e-01" Max="1.00000000e+00"/>
        <Variable VarIndex="8" Expression="frac01" Label="frac01" Title="frac01" Unit="" Internal="frac01" Type="F" Min="0.00000000e+00" Max="1.00145042e+00"/>
        <Variable VarIndex="9" Expression="frac02" Label="frac02" Title="frac02" Unit="" Internal="frac02" Type="F" Min="0.00000000e+00" Max="1.00135183e+00"/>
        <Variable VarIndex="10" Expression="frac03" Label="frac03" Title="frac03" Unit="" Internal="frac03" Type="F" Min="0.00000000e+00" Max="9.56078649e-01"/>
        <Variable VarIndex="11" Expression="frac04" Label="frac04" Title="frac04" Unit="" Internal="frac04" Type="F" Min="0.00000000e+00" Max="7.32953012e-01"/>
        <Variable VarIndex="12" Expression="frac05" Label="frac05" Title="frac05" Unit="" Internal="frac05" Type="F" Min="0.00000000e+00" Max="4.99418944e-01"/>
      </Variables>
      <Classes NClass="2">
        <Class Name="Signal" Index="0"/>
        <Class Name="Background" Index="1"/>
      </Classes>
      <Transformations NTransformations="1">
        <Transform Name="Rearrange">
          <Selection>
            <Input NInputs="13">
              <Input Type="Variable" Label="nvtx" Expression="nvtx"/>
              <Input Type="Variable" Label="dZ" Expression="dZ"/>
              <Input Type="Variable" Label="beta" Expression="beta"/>
              <Input Type="Variable" Label="betaStar" Expression="betaStar"/>
              <Input Type="Variable" Label="nCharged" Expression="nCharged"/>
              <Input Type="Variable" Label="nNeutrals" Expression="nNeutrals"/>
              <Input Type="Variable" Label="dR2Mean" Expression="dR2Mean"/>
              <Input Type="Variable" Label="ptD" Expression="ptD"/>
              <Input Type="Variable" Label="frac01" Expression="frac01"/>
              <Input Type="Variable" Label="frac02" Expression="frac02"/>
              <Input Type="Variable" Label="frac03" Expression="frac03"/>
              <Input Type="Variable" Label="frac04" Expression="frac04"/>
              <Input Type="Variable" Label="frac05" Expression="frac05"/>
            </Input>
            <Output NOutputs="13">
              <Output Type="Variable" Label="nvtx" Expression="nvtx"/>
              <Output Type="Variable" Label="dZ" Expression="dZ"/>
              <Output Type="Variable" Label="beta" Expression="beta"/>
              <Output Type="Variable" Label="betaStar" Expression="betaStar"/>
              <Output Type="Variable" Label="nCharged" Expression="nCharged"/>
              <Output Type="Variable" Label="nNeutrals" Expression="nNeutrals"/>
              <Output Type="Variable" Label="dR2Mean" Expression="dR2Mean"/>
              <Output Type="Variable" Label="ptD" Expression="ptD"/>
              <Output Type="Variable" Label="frac01" Expression="frac01"/>
              <Output Type="Variable" Label="frac02" Expression="frac02"/>
              <Output Type="Variable" Label="frac03" Expression="frac03"/>
              <Output Type="Variable" Label="frac04" Expression="frac04"/>
              <Output Type="Variable" Label="frac05" Expression="frac05"/>
            </Output>
          </Selection>
        </Transform>
      </Transformations>
      <MVAPdfs/>
      <Weights NTrees="2000" AnalysisType="1">
        <BinaryTree type="DecisionTree" boostWeight="1.0000000000000000e+00" itree="0">
          <Node pos="s" depth="0" NCoef="0" IVar="4" Cut="1.0254873037338257e+00" cType="0" res="4.4764471054077148e-01" rms="2.2274246811866760e-01" purity="9.4764471054077148e-01" nType="0">
            <Node pos="l" depth="1" NCoef="0" IVar="4" Cut="2.0274863243103027e+00" cType="0" res="4.7108295559883118e-01" rms="1.6757345199584961e-01" purity="9.7108292579650879e-01" nType="0">
              <Node pos="l" depth="2" NCoef="0" IVar="2" Cut="6.0469764471054077e-01" cType="0" res="4.7927474975585938e-01" rms="1.4246307313442230e-01" purity="9.7927474975585938e-01" nType="0">
                <Node pos="l" depth="3" NCoef="0" IVar="-1" Cut="0.0000000000000000e+00" cType="1" res="9.6440091729164124e-02" rms="1.3222217559814453e-01" purity="9.8220044374465942e-01" nType="-99"/>
                <Node pos="r" depth="3" NCoef="0" IVar="-1" Cut="0.0000000000000000e+00" cType="1" res="6.7294351756572723e-02" rms="3.6984694004058838e-01" purity="8.3647173643112183e-01" nType="-99"/>
              </Node>
              <Node pos="r" depth="2" NCoef="0" IVar="-1" Cut="0.0000000000000000e+00" cType="1" res="5.0205782055854797e-02" rms="4.3241703510284424e-01" purity="7.5102889537811279e-01" nType="-99"/>
            </Node>
            <Node pos="r" depth="1" NCoef="0" IVar="-1" Cut="0.0000000000000000e+00" cType="1" res="-4.0747452527284622e-02" rms="4.5660829544067383e-01" purity="2.9626274108886719e-01" nType="-99"/>
          </Node>
        </BinaryTree>
        <BinaryTree type="DecisionTree" boostWeight="1.0000000000000000e+00" itree="1">
          <Node pos="s" depth="0" NCoef="0" IVar="4" Cut="1.0254873037338257e+00" cType="0" res="4.0301734209060669e-01" rms="2.1521480381488800e-01" purity="9.4764471054077148e-01" nType="0">
            <Node pos="l" depth="1" NCoef="0" IVar="4" Cut="2.0274863243103027e+00" cType="0" res="4.2411708831787109e-01" rms="1.6632530093193054e-01" purity="9.7108292579650879e-01" nType="0">
              <Node pos="l" depth="2" NCoef="0" IVar="2" Cut="6.0369813442230225e-01" cType="0" res="4.3149420619010925e-01" rms="1.4218597114086151e-01" purity="9.7927474975585938e-01" nType="0">
                <Node pos="l" depth="3" NCoef="0" IVar="-1" Cut="0.0000000000000000e+00" cType="1" res="8.7634541094303131e-02" rms="1.3225126266479492e-01" purity="9.8219227790832520e-01" nType="-99"/>
                <Node pos="r" depth="3" NCoef="0" IVar="-1" Cut="0.0000000000000000e+00" cType="1" res="6.0773104429244995e-02" rms="3.7019380927085876e-01" purity="8.3609008789062500e-01" nType="-99"/>
              </Node>
              <Node pos="r" depth="2" NCoef="0" IVar="-1" Cut="0.0000000000000000e+00" cType="1" res="4.5303422957658768e-02" rms="4.3241703510284424e-01" purity="7.5102889537811279e-01" nType="-99"/>
            </Node>
            <Node pos="r" depth="1" NCoef="0" IVar="-1" Cut="0.0000000000000000e+00" cType="1" res="-3.6735888570547104e-02" rms="4.5660826563835144e-01" purity="2.9626274108886719e-01" nType="-99"/>
          </Node>
        </BinaryTree>
        <BinaryTree type="DecisionTree" boostWeight="1.0000000000000000e+00" itree="2">
          <Node pos="s" depth="0" NCoef="0" IVar="2" Cut="2.1539230644702911e-01" cType="0" res="3.6314982175827026e-01" rms="2.0895612239837646e-01" purity="9.4764471054077148e-01" nType="0">
            <Node pos="l" depth="1" NCoef="0" IVar="4" Cut="2.0074963569641113e+00" cType="0" res="3.7847885489463806e-01" rms="1.7612566053867340e-01" purity="9.6535217761993408e-01" nType="0">
              <Node pos="l" depth="2" NCoef="0" IVar="6" Cut="6.4381428062915802e-02" cType="1" res="3.8992947340011597e-01" rms="1.3809846341609955e-01" purity="9.8046714067459106e-01" nType="0">
                <Node pos="l" depth="3" NCoef="0" IVar="-1" Cut="0.0000000000000000e+00" cType="1" res="8.1364586949348450e-02" rms="1.2516495585441589e-01" purity="9.8400193452835083e-01" nType="-99"/>
                <Node pos="r" depth="3" NCoef="0" IVar="-1" Cut="0.0000000000000000e+00" cType="1" res="6.4828038215637207e-02" rms="2.9429212212562561e-01" purity="9.0400940179824829e-01" nType="-99"/>
              </Node>
              <Node pos="r" depth="2" NCoef="0" IVar="12" Cut="5.1741033792495728e-02" cType="1" res="1.6334523260593414e-01" rms="4.5472258329391479e-01" purity="6.8137347698211670e-01" nType="0">
                <Node pos="l" depth="3" NCoef="0" IVar="-1" Cut="0.0000000000000000e+00" cType="1" res="5.1312714815139771e-02" rms="4.0716421604156494e-01" purity="7.7398294210433960e-01" nType="-99"/>
                <Node pos="r" depth="3" NCoef="0" IVar="-1" Cut="0.0000000000000000e+00" cType="1" res="1.2828156352043152e-02" rms="4.8226737976074219e-01" purity="5.8006280660629272e-01" nType="-99"/>
              </Node>
            </Node>
            <Node pos="r" depth="1" NCoef="0" IVar="-1" Cut="0.0000000000000000e+00" cType="1" res="-6.0935784131288528e-02" rms="3.7336307764053345e-01" purity="1.7881231009960175e-01" nType="-99"/>
          </Node>
        </BinaryTree>
        <BinaryTree type="DecisionTree" boostWeight="1.0000000000000000e+00" itree="3">
          <Node pos="s" depth="0" NCoef="0" IVar="4" Cut="1.0254873037338257e+00" cType="0" res="3.2743239402770996e-01" rms="2.0290195941925049e-01" purity="9.4764471054077148e-01" nType="0">
            <Node pos="l" depth="1" NCoef="0" IVar="4" Cut="3.0169916152954102e+00" cType="0" res="3.4487816691398621e-01" rms="1.6338311135768890e-01" purity="9.7108292579650879e-01" nType="0">
              <Node pos="l" depth="2" NCoef="0" IVar="6" Cut="7.5618050992488861e-02" cType="1" res="3.5529243946075439e-01" rms="1.2456394731998444e-01" purity="9.8406308889389038e-01" nType="0">
                <Node pos="l" depth="3" NCoef="0" IVar="-1" Cut="0.0000000000000000e+00" cType="1" res="7.6584942638874054e-02" rms="1.1544284224510193e-01" purity="9.8635536432266235e-01" nType="-99"/>
                <Node pos="r" depth="3" NCoef="0" IVar="-1" Cut="0.0000000000000000e+00" cType="1" res="5.4921876639127731e-02" rms="3.2486611604690552e-01" purity="8.7975496053695679e-01" nType="-99"/>
              </Node>
              <Node pos="r" depth="2" NCoef="0" IVar="6" Cut="2.5155963376164436e-02" cType="1" res="2.4803569912910461e-01" rms="3.4677088260650635e-01" purity="8.5038030147552490e-01" nType="0">
                <Node pos="l" depth="3" NCoef="0" IVar="-1" Cut="0.0000000000000000e+00" cType="1" res="5.8797784149646759e-02" rms="3.1183415651321411e-01" purity="8.8321477174758911e-01" nType="-99"/>
                <Node pos="r" depth="3" NCoef="0" IVar="-1" Cut="0.0000000000000000e+00" cType="1" res="2.5563845410943031e-02" rms="4.3665391206741333e-01" purity="7.2148698568344116e-01" nType="-99"/>
              </Node>
            </Node>
            <Node pos="r" depth="1" NCoef="0" IVar="-1" Cut="0.0000000000000000e+00" cType="1" res="-3.1828444451093674e-02" rms="4.4712820649147034e-01" purity="2.9626274108886719e-01" nType="-99"/>
          </Node>
        </BinaryTree>
        <BinaryTree type="DecisionTree" boostWeight="1.0000000000000000e+00" itree="4">
          <Node pos="s" depth="0" NCoef="0" IVar="2" Cut="2.5187405943870544e-01" cType="0" res="2.9536995291709900e-01" rms="1.9828824698925018e-01" purity="9.4764471054077148e-01" nType="0">
            <Node pos="l" depth="1" NCoef="0" IVar="4" Cut="2.0074963569641113e+00" cType="0" res="3.0852454900741577e-01" rms="1.7156954109668732e-01" purity="9.6560364961624146e-01" nType="0">
              <Node pos="l" depth="2" NCoef="0" IVar="8" Cut="6.4507290720939636e-02" cType="0" res="3.1764110922813416e-01" rms="1.3683390617370605e-01" purity="9.8064291477203369e-01" nType="0">
                <Node pos="l" depth="3" NCoef="0" IVar="-1" Cut="0.0000000000000000e+00" cType="1" res="7.2154559195041656e-02" rms="1.1857560276985168e-01" purity="9.8557209968566895e-01" nType="-99"/>
                <Node pos="r" depth="3" NCoef="0" IVar="-1" Cut="0.0000000000000000e+00" cType="1" res="6.0671173036098480e-02" rms="2.4980068206787109e-01" purity="9.3208110332489014e-01" nType="-99"/>
              </Node>
              <Node pos="r" depth="2" NCoef="0" IVar="11" Cut="8.4255158901214600e-02" cType="1" res="1.3682572543621063e-01" rms="4.4737941026687622e-01" purity="6.8235826492309570e-01" nType="0">
                <Node pos="l" depth="3" NCoef="0" IVar="-1" Cut="0.0000000000000000e+00" cType="1" res="4.2931500822305679e-02" rms="4.1047114133834839e-01" purity="7.5887054204940796e-01" nType="-99"/>
                <Node pos="r" depth="3" NCoef="0" IVar="-1" Cut="0.0000000000000000e+00" cType="1" res="5.5942549370229244e-03" rms="4.7761586308479309e-01" purity="5.6667923927307129e-01" nType="-99"/>
              </Node>
            </Node>
            <Node pos="r" depth="1" NCoef="0" IVar="-1" Cut="0.0000000000000000e+00" cType="1" res="-5.2961718291044235e-02" rms="3.7627613544464111e-01" purity="1.9237822294235229e-01" nType="-99"/>
          </Node>
        </BinaryTree>
        <BinaryTree type="DecisionTree" boostWeight="1.0000000000000000e+00" itree="5">
          <Node pos="s" depth="0" NCoef="0" IVar="2" Cut="2.7436283230781555e-01" cType="0" res="2.6654878258705139e-01" rms="1.9385209679603577e-01" purity="9.4764471054077148e-01" nType="0">
            <Node pos="l" depth="1" NCoef="0" IVar="4" Cut="2.0074963569641113e+00" cType="0" res="2.7853789925575256e-01" rms="1.7007489502429962e-01" purity="9.6574991941452026e-01" nType="0">
              <Node pos="l" depth="2" NCoef="0" IVar="6" Cut="5.8652523905038834e-02" cType="1" res="2.8674027323722839e-01" rms="1.3639138638973236e-01" purity="9.8074477910995483e-01" nType="0">
                <Node pos="l" depth="3" NCoef="0" IVar="-1" Cut="0.0000000000000000e+00" cType="1" res="6.8441845476627350e-02" rms="1.2102631479501724e-01" purity="9.8496681451797485e-01" nType="-99"/>
                <Node pos="r" depth="3" NCoef="0" IVar="-1" Cut="0.0000000000000000e+00" cType="1" res="5.3890414535999298e-02" rms="2.7412649989128113e-01" purity="9.1707080602645874e-01" nType="-99"/>
              </Node>
              <Node pos="r" depth="2" NCoef="0" IVar="12" Cut="6.5146662294864655e-02" cType="1" res="1.2381745129823685e-01" rms="4.4546237587928772e-01" purity="6.8290388584136963e-01" nType="0">
                <Node pos="l" depth="3" NCoef="0" IVar="-1" Cut="0.0000000000000000e+00" cType="1" res="3.8994137197732925e-02" rms="4.1063261032104492e-01" purity="7.5716364383697510e-01" nType="-99"/>
                <Node pos="r" depth="3" NCoef="0" IVar="-1" Cut="0.0000000000000000e+00" cType="1" res="3.7621271330863237e-03" rms="4.7883975505828857e-01" purity="5.6145751476287842e-01" nType="-99"/>
              </Node>
            </Node>
            <Node pos="r" depth="1" NCoef="0" IVar="-1" Cut="0.0000000000000000e+00" cType="1" res="-4.7351766377687454e-02" rms="3.7976557016372681e-01" purity="2.0193734765052795e-01" nType="-99"/>
          </Node>
        </BinaryTree>
        <BinaryTree type="DecisionTree" boostWeight="1.0000000000000000e+00" itree="6">
          <Node pos="s" depth="0" NCoef="0" IVar="4" Cut="1.0254873037338257e+00" cType="0" res="2.4061296880245209e-01" rms="1.9016963243484497e-01" purity="9.4764471054077148e-01" nType="0">
            <Node pos="l" depth="1" NCoef="0" IVar="2" Cut="5.6271862983703613e-01" cType="0" res="2.5394535064697266e-01" rms="1.5990637242794037e-01" purity="9.7108292579650879e-01" nType="0">
              <Node pos="l" depth="2" NCoef="0" IVar="4" Cut="3.0169916152954102e+00" cType="0" res="2.5745597481727600e-01" rms="1.4841330051422119e-01" purity="9.7617542743682861e-01" nType="0">
                <Node pos="l" depth="3" NCoef="0" IVar="-1" Cut="0.0000000000000000e+00" cType="1" res="6.5558843314647675e-02" rms="1.1905706673860550e-01" purity="9.8546856641769409e-01" nType="-99"/>
                <Node pos="r" depth="3" NCoef="0" IVar="-1" Cut="0.0000000000000000e+00" cType="1" res="4.7655086964368820e-02" rms="3.1112524867057800e-01" purity="8.8417261838912964e-01" nType="-99"/>
              </Node>
              <Node pos="r" depth="2" NCoef="0" IVar="-1" Cut="0.0000000000000000e+00" cType="1" res="1.6618259251117706e-02" rms="4.1693973541259766e-01" purity="7.1084457635879517e-01" nType="-99"/>
            </Node>
            <Node pos="r" depth="1" NCoef="0" IVar="-1" Cut="0.0000000000000000e+00" cType="1" res="-2.6978729292750359e-02" rms="4.3401581048965454e-01" purity="2.9626274108886719e-01" nType="-99"/>
          </Node>
        </BinaryTree>
        <BinaryTree type="DecisionTree" boostWeight="1.0000000000000000e+00" itree="7">
          <Node pos="s" depth="0" NCoef="0" IVar="2" Cut="1.7791104316711426e-01" cType="0" res="2.1725246310234070e-01" rms="1.8737490475177765e-01" purity="9.4764471054077148e-01" nType="0">
            <Node pos="l" depth="1" NCoef="0" IVar="4" Cut="2.0074963569641113e+00" cType="0" res="2.2692354023456573e-01" rms="1.6937711834907532e-01" purity="9.6502619981765747e-01" nType="0">
              <Node pos="l" depth="2" NCoef="0" IVar="4" Cut="4.0254874229431152e+00" cType="0" res="2.3375226557254791e-01" rms="1.3734920322895050e-01" purity="9.8026734590530396e-01" nType="0">
                <Node pos="l" depth="3" NCoef="0" IVar="-1" Cut="0.0000000000000000e+00" cType="1" res="6.3480503857135773e-02" rms="1.1201085895299911e-01" purity="9.8712176084518433e-01" nType="-99"/>
                <Node pos="r" depth="3" NCoef="0" IVar="-1" Cut="0.0000000000000000e+00" cType="1" res="5.2977111190557480e-02" rms="2.2688579559326172e-01" purity="9.4369846582412720e-01" nType="-99"/>
              </Node>
              <Node pos="r" depth="2" NCoef="0" IVar="6" Cut="1.3266441412270069e-02" cType="1" res="9.9033907055854797e-02" rms="4.4208756089210510e-01" purity="6.7958772182464600e-01" nType="0">
                <Node pos="l" depth="3" NCoef="0" IVar="-1" Cut="0.0000000000000000e+00" cType="1" res="3.4257974475622177e-02" rms="4.1058763861656189e-01" purity="7.5198423862457275e-01" nType="-99"/>
                <Node pos="r" depth="3" NCoef="0" IVar="-1" Cut="0.0000000000000000e+00" cType="1" res="-1.0339620057493448e-03" rms="4.7230577468872070e-01" purity="5.5852711200714111e-01" nType="-99"/>
              </Node>
            </Node>
            <Node pos="r" depth="1" NCoef="0" IVar="-1" Cut="0.0000000000000000e+00" cType="1" res="-4.6633481979370117e-02" rms="3.6138534545898438e-01" purity="1.6683673858642578e-01" nType="-99"/>
          </Node>
        </BinaryTree>
        <BinaryTree type="DecisionTree" boostWeight="1.0000000000000000e+00" itree="8">
          <Node pos="s" depth="0" NCoef="0" IVar="2" Cut="3.0434781312942505e-01" cType="0" res="1.9619575142860413e-01" rms="1.8466742336750031e-01" purity="9.4764471054077148e-01" nType="0">
            <Node pos="l" depth="1" NCoef="0" IVar="4" Cut="2.0074963569641113e+00" cType="0" res="2.0548866689205170e-01" rms="1.6677783429622650e-01" purity="9.6595871448516846e-01" nType="0">
              <Node pos="l" depth="2" NCoef="0" IVar="6" Cut="7.6065383851528168e-02" cType="1" res="2.1144945919513702e-01" rms="1.3553483784198761e-01" purity="9.8090136051177979e-01" nType="0">
                <Node pos="l" depth="3" NCoef="0" IVar="-1" Cut="0.0000000000000000e+00" cType="1" res="6.0224290937185287e-02" rms="1.2744766473770142e-01" purity="9.8320591449737549e-01" nType="-99"/>
                <Node pos="r" depth="3" NCoef="0" IVar="-1" Cut="0.0000000000000000e+00" cType="1" res="3.1708434224128723e-02" rms="3.3663839101791382e-01" purity="8.6856234073638916e-01" nType="-99"/>
              </Node>
              <Node pos="r" depth="2" NCoef="0" IVar="11" Cut="8.4255158901214600e-02" cType="1" res="9.2861600220203400e-02" rms="4.3922862410545349e-01" purity="6.8362224102020264e-01" nType="0">
                <Node pos="l" depth="3" NCoef="0" IVar="-1" Cut="0.0000000000000000e+00" cType="1" res="3.2987300306558609e-02" rms="4.0532088279724121e-01" purity="7.5969672203063965e-01" nType="-99"/>
                <Node pos="r" depth="3" NCoef="0" IVar="-1" Cut="0.0000000000000000e+00" cType="1" res="2.4285247491206974e-04" rms="4.7159603238105774e-01" purity="5.6823796033859253e-01" nType="-99"/>
              </Node>
            </Node>
            <Node pos="r" depth="1" NCoef="0" IVar="-1" Cut="0.0000000000000000e+00" cType="1" res="-3.8316976279020309e-02" rms="3.7953355908393860e-01" purity="2.1725964546203613e-01" nType="-99"/>
          </Node>
        </BinaryTree>
        <BinaryTree type="DecisionTree" boostWeight="1.0000000000000000e+00" itree="9">
          <Node pos="s" depth="0" NCoef="0" IVar="4" Cut="1.0254873037338257e+00" cType="0" res="1.7721061408519745e-01" rms="1.8242923915386200e-01" purity="9.4764471054077148e-01" nType="0">
            <Node pos="l" depth="1" NCoef="0" IVar="1" Cut="4.1657590866088867e-01" cType="1" res="1.8744845688343048e-01" rms="1.5794701874256134e-01" purity="9.7108292579650879e-01" nType="0">
              <Node pos="l" depth="2" NCoef="0" IVar="8" Cut="7.2068393230438232e-02" cType="0" res="1.9027270376682281e-01" rms="1.4911608397960663e-01" purity="9.7554439306259155e-01" nType="0">
                <Node pos="l" depth="3" NCoef="0" IVar="-1" Cut="0.0000000000000000e+00" cType="1" res="5.8191098272800446e-02" rms="1.3186834752559662e-01" purity="9.8099887371063232e-01" nType="-99"/>
                <Node pos="r" depth="3" NCoef="0" IVar="-1" Cut="0.0000000000000000e+00" cType="1" res="4.3202158063650131e-02" rms="2.5483918190002441e-01" purity="9.2535525560379028e-01" nType="-99"/>
              </Node>
              <Node pos="r" depth="2" NCoef="0" IVar="-1" Cut="0.0000000000000000e+00" cType="1" res="1.1620910838246346e-02" rms="3.7527763843536377e-01" purity="7.4650382995605469e-01" nType="-99"/>
            </Node>
            <Node pos="r" depth="1" NCoef="0" IVar="-1" Cut="0.0000000000000000e+00" cType="1" res="-2.3084260523319244e-02" rms="4.2544579505920410e-01" purity="2.9626274108886719e-01" nType="-99"/>
          </Node>
        </BinaryTree>
        <BinaryTree type="DecisionTree" boostWeight="1.0000000000000000e+00" itree="10">
          <Node pos="s" depth="0" NCoef="0" IVar="2" Cut="1.4792603254318237e-01" cType="0" res="1.6007113456726074e-01" rms="1.8077966570854187e-01" purity="9.4764471054077148e-01" nType="0">
            <Node pos="l" depth="1" NCoef="0" IVar="4" Cut="3.0149924755096436e+00" cType="0" res="1.6739013791084290e-01" rms="1.6772088408470154e-01" purity="9.6478688716888428e-01" nType="0">
              <Node pos="l" depth="2" NCoef="0" IVar="6" Cut="6.5894618630409241e-02" cType="1" res="1.7581318318843842e-01" rms="1.2270247191190720e-01" purity="9.8437422513961792e-01" nType="0">
                <Node pos="l" depth="3" NCoef="0" IVar="-1" Cut="0.0000000000000000e+00" cType="1" res="5.7803124189376831e-02" rms="1.0965868085622787e-01" purity="9.8764914274215698e-01" nType="-99"/>
                <Node pos="r" depth="3" NCoef="0" IVar="-1" Cut="0.0000000000000000e+00" cType="1" res="3.6282025277614594e-02" rms="2.8632181882858276e-01" purity="9.0871816873550415e-01" nType="-99"/>
              </Node>
              <Node pos="r" depth="2" NCoef="0" IVar="6" Cut="2.8545543551445007e-02" cType="1" res="9.9455691874027252e-02" rms="3.5831838846206665e-01" purity="8.0680900812149048e-01" nType="0">
                <Node pos="l" depth="3" NCoef="0" IVar="-1" Cut="0.0000000000000000e+00" cType="1" res="3.2834898680448532e-02" rms="3.3368036150932312e-01" purity="8.4013682603836060e-01" nType="-99"/>
                <Node pos="r" depth="3" NCoef="0" IVar="-1" Cut="0.0000000000000000e+00" cType="1" res="-7.0347022265195847e-03" rms="4.3615138530731201e-01" purity="6.4716982841491699e-01" nType="-99"/>
              </Node>
            </Node>
            <Node pos="r" depth="1" NCoef="0" IVar="-1" Cut="0.0000000000000000e+00" cType="1" res="-4.0349390357732773e-02" rms="3.5525992512702942e-01" purity="1.5894846618175507e-01" nType="-99"/>
          </Node>
        </BinaryTree>
        <BinaryTree type="DecisionTree" boostWeight="1.0000000000000000e+00" itree="11">
          <Node pos="s" depth="0" NCoef="0" IVar="4" Cut="1.0254873037338257e+00" cType="0" res="1.4461146295070648e-01" rms="1.7904371023178101e-01" purity="9.4764471054077148e-01" nType="0">
            <Node pos="l" depth="1" NCoef="0" IVar="2" Cut="5.6271862983703613e-01" cType="0" res="1.5320125222206116e-01" rms="1.5708872675895691e-01" purity="9.7108292579650879e-01" nType="0">
              <Node pos="l" depth="2" NCoef="0" IVar="6" Cut="5.6453894823789597e-02" cType="1" res="1.5571482479572296e-01" rms="1.4731019735336304e-01" purity="9.7617542743682861e-01" nType="0">
                <Node pos="l" depth="3" NCoef="0" IVar="-1" Cut="0.0000000000000000e+00" cType="1" res="5.4504893720149994e-02" rms="1.3298901915550232e-01" purity="9.8070204257965088e-01" nType="-99"/>
                <Node pos="r" depth="3" NCoef="0" IVar="-1" Cut="0.0000000000000000e+00" cType="1" res="3.5449445247650146e-02" rms="2.7122294902801514e-01" purity="9.1527438163757324e-01" nType="-99"/>
              </Node>
              <Node pos="r" depth="2" NCoef="0" IVar="-1" Cut="0.0000000000000000e+00" cType="1" res="6.2582306563854218e-03" rms="3.9995589852333069e-01" purity="7.1084457635879517e-01" nType="-99"/>
            </Node>
            <Node pos="r" depth="1" NCoef="0" IVar="-1" Cut="0.0000000000000000e+00" cType="1" res="-2.0737783983349800e-02" rms="4.2203357815742493e-01" purity="2.9626274108886719e-01" nType="-99"/>
          </Node>
        </BinaryTree>
        <BinaryTree type="DecisionTree" boostWeight="1.0000000000000000e+00" itree="12">
          <Node pos="s" depth="0" NCoef="0" IVar="2" Cut="3.7081459164619446e-01" cType="0" res="1.3064892590045929e-01" rms="1.7787182331085205e-01" purity="9.4764471054077148e-01" nType="0">
            <Node pos="l" depth="1" NCoef="0" IVar="4" Cut="2.0074963569641113e+00" cType="0" res="1.3756944239139557e-01" rms="1.6371715068817139e-01" purity="9.6635258197784424e-01" nType="0">
              <Node pos="l" depth="2" NCoef="0" IVar="8" Cut="6.2007009983062744e-02" cType="0" res="1.4213868975639343e-01" rms="1.3406051695346832e-01" purity="9.8117941617965698e-01" nType="0">
                <Node pos="l" depth="3" NCoef="0" IVar="-1" Cut="0.0000000000000000e+00" cType="1" res="5.4297242313623428e-02" rms="1.1651627719402313e-01" purity="9.8597151041030884e-01" nType="-99"/>
                <Node pos="r" depth="3" NCoef="0" IVar="-1" Cut="0.0000000000000000e+00" cType="1" res="3.7320740520954132e-02" rms="2.4740552902221680e-01" purity="9.3261259794235229e-01" nType="-99"/>
              </Node>
              <Node pos="r" depth="2" NCoef="0" IVar="12" Cut="5.1741033792495728e-02" cType="1" res="5.0882887095212936e-02" rms="4.3177923560142517e-01" purity="6.8506211042404175e-01" nType="0">
                <Node pos="l" depth="3" NCoef="0" IVar="-1" Cut="0.0000000000000000e+00" cType="1" res="2.7541857212781906e-02" rms="3.9019581675529480e-01" purity="7.7674555778503418e-01" nType="-99"/>
                <Node pos="r" depth="3" NCoef="0" IVar="-1" Cut="0.0000000000000000e+00" cType="1" res="-4.8620547167956829e-03" rms="4.6241420507431030e-01" purity="5.8441555500030518e-01" nType="-99"/>
              </Node>
            </Node>
            <Node pos="r" depth="1" NCoef="0" IVar="-1" Cut="0.0000000000000000e+00" cType="1" res="-2.9886459931731224e-02" rms="3.7843966484069824e-01" purity="2.5517386198043823e-01" nType="-99"/>
          </Node>
        </BinaryTree>
        <BinaryTree type="DecisionTree" boostWeight="1.0000000000000000e+00" itree="13">
          <Node pos="s" depth="0" NCoef="0" IVar="2" Cut="1.4192903041839600e-01" cType="0" res="1.1805316060781479e-01" rms="1.7661583423614502e-01" purity="9.4764471054077148e-01" nType="0">
            <Node pos="l" depth="1" NCoef="0" IVar="4" Cut="3.0149924755096436e+00" cType="0" res="1.2365499883890152e-01" rms="1.6635015606880188e-01" purity="9.6473211050033569e-01" nType="0">
              <Node pos="l" depth="2" NCoef="0" IVar="6" Cut="7.5618050992488861e-02" cType="1" res="1.3079698383808136e-01" rms="1.2250959873199463e-01" purity="9.8436623811721802e-01" nType="0">
                <Node pos="l" depth="3" NCoef="0" IVar="-1" Cut="0.0000000000000000e+00" cType="1" res="5.3225655108690262e-02" rms="1.1373907327651978e-01" purity="9.8665660619735718e-01" nType="-99"/>
                <Node pos="r" depth="3" NCoef="0" IVar="-1" Cut="0.0000000000000000e+00" cType="1" res="2.1372135728597641e-02" rms="3.2363557815551758e-01" purity="8.8015425205230713e-01" nType="-99"/>
              </Node>
              <Node pos="r" depth="2" NCoef="0" IVar="12" Cut="7.6905988156795502e-02" cType="1" res="6.6091112792491913e-02" rms="3.5498848557472229e-01" purity="8.0648201704025269e-01" nType="0">
                <Node pos="l" depth="3" NCoef="0" IVar="-1" Cut="0.0000000000000000e+00" cType="1" res="2.9083501547574997e-02" rms="3.2073557376861572e-01" purity="8.5256677865982056e-01" nType="-99"/>
                <Node pos="r" depth="3" NCoef="0" IVar="-1" Cut="0.0000000000000000e+00" cType="1" res="-4.3035033158957958e-03" rms="4.1419050097465515e-01" purity="6.9680821895599365e-01" nType="-99"/>
              </Node>
            </Node>
            <Node pos="r" depth="1" NCoef="0" IVar="-1" Cut="0.0000000000000000e+00" cType="1" res="-3.4370902925729752e-02" rms="3.5419130325317383e-01" purity="1.5739282965660095e-01" nType="-99"/>
          </Node>
        </BinaryTree>
        <BinaryTree type="DecisionTree" boostWeight="1.0000000000000000e+00" itree="14">
          <Node pos="s" depth="0" NCoef="0" IVar="4" Cut="1.0254873037338257e+00" cType="0" res="1.0667429864406586e-01" rms="1.7549256980419159e-01" purity="9.4764471054077148e-01" nType="0">
            <Node pos="l" depth="1" NCoef="0" IVar="1" Cut="4.1657590866088867e-01" cType="1" res="1.1335240304470062e-01" rms="1.5602235496044159e-01" purity="9.7108292579650879e-01" nType="0">
              <Node pos="l" depth="2" NCoef="0" IVar="7" Cut="6.7221522331237793e-01" cType="1" res="1.1549520492553711e-01" rms="1.4827774465084076e-01" purity="9.7554439306259155e-01" nType="0">
                <Node pos="l" depth="3" NCoef="0" IVar="-1" Cut="0.0000000000000000e+00" cType="1" res="4.9217481166124344e-02" rms="1.4174471795558929e-01" purity="9.7780400514602661e-01" nType="-99"/>
                <Node pos="r" depth="3" NCoef="0" IVar="-1" Cut="0.0000000000000000e+00" cType="1" res="1.2212318368256092e-02" rms="3.3047419786453247e-01" purity="8.6338418722152710e-01" nType="-99"/>
              </Node>
              <Node pos="r" depth="2" NCoef="0" IVar="-1" Cut="0.0000000000000000e+00" cType="1" res="1.6393275000154972e-03" rms="3.6208766698837280e-01" purity="7.4650382995605469e-01" nType="-99"/>
            </Node>
            <Node pos="r" depth="1" NCoef="0" IVar="-1" Cut="0.0000000000000000e+00" cType="1" res="-1.8047835677862167e-02" rms="4.1772913932800293e-01" purity="2.9626274108886719e-01" nType="-99"/>
          </Node>
        </BinaryTree>
        <BinaryTree type="DecisionTree" boostWeight="1.0000000000000000e+00" itree="15">
          <Node pos="s" depth="0" NCoef="0" IVar="2" Cut="3.7131434679031372e-01" cType="0" res="9.6382722258567810e-02" rms="1.7478385567665100e-01" purity="9.4764471054077148e-01" nType="0">
            <Node pos="l" depth="1" NCoef="0" IVar="4" Cut="3.0149924755096436e+00" cType="0" res="1.0174652934074402e-01" rms="1.6274565458297729e-01" purity="9.6635574102401733e-01" nType="0">
              <Node pos="l" depth="2" NCoef="0" IVar="6" Cut="4.8784401267766953e-02" cType="1" res="1.0753572732210159e-01" rms="1.2069208174943924e-01" purity="9.8490697145462036e-01" nType="0">
                <Node pos="l" depth="3" NCoef="0" IVar="-1" Cut="0.0000000000000000e+00" cType="1" res="5.2178397774696350e-02" rms="9.9215567111968994e-02" purity="9.8998379707336426e-01" nType="-99"/>
                <Node pos="r" depth="3" NCoef="0" IVar="-1" Cut="0.0000000000000000e+00" cType="1" res="3.4070398658514023e-02" rms="2.2882035374641418e-01" purity="9.4339144229888916e-01" nType="-99"/>
              </Node>
              <Node pos="r" depth="2" NCoef="0" IVar="11" Cut="1.1424428224563599e-01" cType="1" res="5.4253753274679184e-02" rms="3.4891268610954285e-01" purity="8.1416720151901245e-01" nType="0">
                <Node pos="l" depth="3" NCoef="0" IVar="-1" Cut="0.0000000000000000e+00" cType="1" res="2.6244124397635460e-02" rms="3.1719440221786499e-01" purity="8.5526949167251587e-01" nType="-99"/>
                <Node pos="r" depth="3" NCoef="0" IVar="-1" Cut="0.0000000000000000e+00" cType="1" res="-7.9197520390152931e-03" rms="4.1097050905227661e-01" purity="7.0446956157684326e-01" nType="-99"/>
              </Node>
            </Node>
            <Node pos="r" depth="1" NCoef="0" IVar="-1" Cut="0.0000000000000000e+00" cType="1" res="-2.5681436061859131e-02" rms="3.7472102046012878e-01" purity="2.5555711984634399e-01" nType="-99"/>
          </Node>
        </BinaryTree>
        <BinaryTree type="DecisionTree" boostWeight="1.0000000000000000e+00" itree="16">
          <Node pos="s" depth="0" NCoef="0" IVar="4" Cut="2.0224888324737549e+00" cType="0" res="8.7102733552455902e-02" rms="1.7393887042999268e-01" purity="9.4764471054077148e-01" nType="0">
            <Node pos="l" depth="1" NCoef="0" IVar="8" Cut="6.4507290720939636e-02" cType="0" res="9.5254637300968170e-02" rms="1.3772051036357880e-01" purity="9.7927474975585938e-01" nType="0">
              <Node pos="l" depth="2" NCoef="0" IVar="7" Cut="6.4556586742401123e-01" cType="1" res="9.8549298942089081e-02" rms="1.2027370184659958e-01" purity="9.8431974649429321e-01" nType="0">
                <Node pos="l" depth="3" NCoef="0" IVar="-1" Cut="0.0000000000000000e+00" cType="1" res="4.9722164869308472e-02" rms="1.1446043848991394e-01" purity="9.8591762781143188e-01" nType="-99"/>
                <Node pos="r" depth="3" NCoef="0" IVar="-1" Cut="0.0000000000000000e+00" cType="1" res="2.1509788930416107e-02" rms="2.6473110914230347e-01" purity="9.1612410545349121e-01" nType="-99"/>
              </Node>
              <Node pos="r" depth="2" NCoef="0" IVar="4" Cut="5.0189905166625977e+00" cType="0" res="6.2861338257789612e-02" rms="2.4913190305233002e-01" purity="9.2967218160629272e-01" nType="0">
                <Node pos="l" depth="3" NCoef="0" IVar="-1" Cut="0.0000000000000000e+00" cType="1" res="3.7594527006149292e-02" rms="2.0450776815414429e-01" purity="9.5512378215789795e-01" nType="-99"/>
                <Node pos="r" depth="3" NCoef="0" IVar="-1" Cut="0.0000000000000000e+00" cType="1" res="-8.3477754378691316e-04" rms="3.4335249662399292e-01" purity="8.5244762897491455e-01" nType="-99"/>
              </Node>
            </Node>
            <Node pos="r" depth="1" NCoef="0" IVar="2" Cut="7.5562220811843872e-01" cType="0" res="-2.2248161956667900e-02" rms="4.1087952256202698e-01" purity="5.2335453033447266e-01" nType="0">
              <Node pos="l" depth="2" NCoef="0" IVar="1" Cut="8.2821836695075035e-03" cType="1" res="3.0983997508883476e-02" rms="4.2371153831481934e-01" purity="6.9072937965393066e-01" nType="0">
                <Node pos="l" depth="3" NCoef="0" IVar="-1" Cut="0.0000000000000000e+00" cType="1" res="3.1216137111186981e-02" rms="3.6309558153152466e-01" purity="8.1258666515350342e-01" nType="-99"/>
                <Node pos="r" depth="3" NCoef="0" IVar="-1" Cut="0.0000000000000000e+00" cType="1" res="-2.1410357207059860e-02" rms="4.6394923329353333e-01" purity="5.3037214279174805e-01" nType="-99"/>
              </Node>
              <Node pos="r" depth="2" NCoef="0" IVar="-1" Cut="0.0000000000000000e+00" cType="1" res="-3.5031665116548538e-02" rms="3.5750213265419006e-01" purity="1.7135994136333466e-01" nType="-99"/>
            </Node>
          </Node>
        </BinaryTree>
        <BinaryTree type="DecisionTree" boostWeight="1.0000000000000000e+00" itree="17">
          <Node pos="s" depth="0" NCoef="0" IVar="2" Cut="4.0479761362075806e-01" cType="0" res="7.8717932105064392e-02" rms="1.7283560335636139e-01" purity="9.4764471054077148e-01" nType="0">
            <Node pos="l" depth="1" NCoef="0" IVar="4" Cut="4.0224885940551758e+00" cType="0" res="8.3262093365192413e-02" rms="1.6141134500503540e-01" purity="9.6653014421463013e-01" nType="0">
              <Node pos="l" depth="2" NCoef="0" IVar="6" Cut="7.5015045702457428e-02" cType="1" res="9.0345583856105804e-02" rms="1.1039328575134277e-01" purity="9.8739165067672729e-01" nType="0">
                <Node pos="l" depth="3" NCoef="0" IVar="-1" Cut="0.0000000000000000e+00" cType="1" res="5.0097148865461349e-02" rms="1.0030114650726318e-01" purity="9.8973363637924194e-01" nType="-99"/>
                <Node pos="r" depth="3" NCoef="0" IVar="-1" Cut="0.0000000000000000e+00" cType="1" res="1.4150065369904041e-02" rms="3.0995973944664001e-01" purity="8.9150142669677734e-01" nType="-99"/>
              </Node>
              <Node pos="r" depth="2" NCoef="0" IVar="1" Cut="2.7531065046787262e-02" cType="1" res="5.4659165441989899e-02" rms="2.8465285897254944e-01" purity="8.8229203224182129e-01" nType="0">
                <Node pos="l" depth="3" NCoef="0" IVar="-1" Cut="0.0000000000000000e+00" cType="1" res="2.7892744168639183e-02" rms="2.6123559474945068e-01" purity="9.0679001808166504e-01" nType="-99"/>
                <Node pos="r" depth="3" NCoef="0" IVar="-1" Cut="0.0000000000000000e+00" cType="1" res="-1.5980055555701256e-02" rms="3.9562195539474487e-01" purity="7.1369171142578125e-01" nType="-99"/>
              </Node>
            </Node>
            <Node pos="r" depth="1" NCoef="0" IVar="-1" Cut="0.0000000000000000e+00" cType="1" res="-2.1942358464002609e-02" rms="3.7241664528846741e-01" purity="2.7704164385795593e-01" nType="-99"/>
          </Node>
        </BinaryTree>
        <BinaryTree type="DecisionTree" boostWeight="1.0000000000000000e+00" itree="18">
          <Node pos="s" depth="0" NCoef="0" IVar="4" Cut="2.0224888324737549e+00" cType="0" res="7.1138530969619751e-02" rms="1.7218419909477234e-01" purity="9.4764471054077148e-01" nType="0">
            <Node pos="l" depth="1" NCoef="0" IVar="11" Cut="1.8864108622074127e-01" cType="1" res="7.8143335878849030e-02" rms="1.3738238811492920e-01" purity="9.7927474975585938e-01" nType="0">
              <Node pos="l" depth="2" NCoef="0" IVar="7" Cut="6.4523071050643921e-01" cType="1" res="8.2198202610015869e-02" rms="1.1770201474428177e-01" purity="9.8487401008605957e-01" nType="0">
                <Node pos="l" depth="3" NCoef="0" IVar="-1" Cut="0.0000000000000000e+00" cType="1" res="4.8016265034675598e-02" rms="1.1139047145843506e-01" purity="9.8657965660095215e-01" nType="-99"/>
                <Node pos="r" depth="3" NCoef="0" IVar="-1" Cut="0.0000000000000000e+00" cType="1" res="1.7722120508551598e-02" rms="2.6483502984046936e-01" purity="9.1595035791397095e-01" nType="-99"/>
              </Node>
              <Node pos="r" depth="2" NCoef="0" IVar="4" Cut="5.0239877700805664e+00" cType="0" res="5.2670646458864212e-02" rms="2.2284172475337982e-01" purity="9.4409990310668945e-01" nType="0">
                <Node pos="l" depth="3" NCoef="0" IVar="-1" Cut="0.0000000000000000e+00" cType="1" res="3.6924049258232117e-02" rms="1.8282432854175568e-01" purity="9.6444112062454224e-01" nType="-99"/>
                <Node pos="r" depth="3" NCoef="0" IVar="-1" Cut="0.0000000000000000e+00" cType="1" res="-1.6631563194096088e-03" rms="3.2071971893310547e-01" purity="8.7235999107360840e-01" nType="-99"/>
              </Node>
            </Node>
            <Node pos="r" depth="1" NCoef="0" IVar="5" Cut="1.5018490791320801e+01" cType="1" res="-2.2825105115771294e-02" rms="4.0580445528030396e-01" purity="5.2335453033447266e-01" nType="0">
              <Node pos="l" depth="2" NCoef="0" IVar="7" Cut="6.1495065689086914e-01" cType="1" res="1.6206080093979836e-02" rms="4.0159186720848083e-01" purity="5.8102107048034668e-01" nType="0">
                <Node pos="l" depth="3" NCoef="0" IVar="-1" Cut="0.0000000000000000e+00" cType="1" res="1.1959167197346687e-02" rms="3.8297000527381897e-01" purity="6.2998473644256592e-01" nType="-99"/>
                <Node pos="r" depth="3" NCoef="0" IVar="-1" Cut="0.0000000000000000e+00" cType="1" res="-9.0229129418730736e-03" rms="4.2642989754676819e-01" purity="4.9800559878349304e-01" nType="-99"/>
              </Node>
              <Node pos="r" depth="2" NCoef="0" IVar="-1" Cut="0.0000000000000000e+00" cType="1" res="-3.0694846063852310e-02" rms="3.9915028214454651e-01" purity="3.7399387359619141e-01" nType="-99"/>
            </Node>
          </Node>
        </BinaryTree>
        <BinaryTree type="DecisionTree" boostWeight="1.0000000000000000e+00" itree="19">
          <Node pos="s" depth="0" NCoef="0" IVar="4" Cut="1.0254873037338257e+00" cType="0" res="6.4291365444660187e-02" rms="1.7153707146644592e-01" purity="9.4764471054077148e-01" nType="0">
            <Node pos="l" depth="1" NCoef="0" IVar="1" Cut="4.1657590866088867e-01" cType="1" res="6.8786211311817169e-02" rms="1.5435102581977844e-01" purity="9.7108292579650879e-01" nType="0">
              <Node pos="l" depth="2" NCoef="0" IVar="6" Cut="5.9539679437875748e-02" cType="1" res="7.0528112351894379e-02" rms="1.4723557233810425e-01" purity="9.7554439306259155e-01" nType="0">
                <Node pos="l" depth="3" NCoef="0" IVar="-1" Cut="0.0000000000000000e+00" cType="1" res="4.3751217424869537e-02" rms="1.3461451232433319e-01" purity="9.7968143224716187e-01" nType="-99"/>
                <Node pos="r" depth="3" NCoef="0" IVar="-1" Cut="0.0000000000000000e+00" cType="1" res="1.3449060730636120e-02" rms="2.7898412942886353e-01" purity="9.0800625085830688e-01" nType="-99"/>
              </Node>
              <Node pos="r" depth="2" NCoef="0" IVar="-1" Cut="0.0000000000000000e+00" cType="1" res="-6.4315446652472019e-03" rms="3.5214239358901978e-01" purity="7.4650382995605469e-01" nType="-99"/>
            </Node>
            <Node pos="r" depth="1" NCoef="0" IVar="-1" Cut="0.0000000000000000e+00" cType="1" res="-1.4622634276747704e-02" rms="4.1098803281784058e-01" purity="2.9626274108886719e-01" nType="-99"/>
          </Node>
        </BinaryTree>
        <BinaryTree type="DecisionTree" boostWeight="1.0000000000000000e+00" itree="20">
          <Node pos="s" depth="0" NCoef="0" IVar="4" Cut="2.0224888324737549e+00" cType="0" res="5.8086473494768143e-02" rms="1.7121243476867676e-01" purity="9.4764471054077148e-01" nType="0">
            <Node pos="l" depth="1" NCoef="0" IVar="12" Cut="1.0557431727647781e-01" cType="1" res="6.4233392477035522e-02" rms="1.3718588650226593e-01" purity="9.7927474975585938e-01" nType="0">
              <Node pos="l" depth="2" NCoef="0" IVar="4" Cut="4.0254874229431152e+00" cType="0" res="6.8993054330348969e-02" rms="1.1577508598566055e-01" purity="9.8529803752899170e-01" nType="0">
                <Node pos="l" depth="3" NCoef="0" IVar="-1" Cut="0.0000000000000000e+00" cType="1" res="4.8746410757303238e-02" rms="9.0977162122726440e-02" purity="9.9152213335037231e-01" nType="-99"/>
                <Node pos="r" depth="3" NCoef="0" IVar="-1" Cut="0.0000000000000000e+00" cType="1" res="3.1605843454599380e-02" rms="1.9709019362926483e-01" purity="9.5418381690979004e-01" nType="-99"/>
              </Node>
              <Node pos="r" depth="2" NCoef="0" IVar="4" Cut="4.0144929885864258e+00" cType="0" res="4.4869314879179001e-02" rms="2.0096652209758759e-01" purity="9.5476961135864258e-01" nType="0">
                <Node pos="l" depth="3" NCoef="0" IVar="-1" Cut="0.0000000000000000e+00" cType="1" res="3.5483859479427338e-02" rms="1.6979248821735382e-01" purity="9.6925532817840576e-01" nType="-99"/>
                <Node pos="r" depth="3" NCoef="0" IVar="-1" Cut="0.0000000000000000e+00" cType="1" res="-1.4994611963629723e-02" rms="3.3576020598411560e-01" purity="8.5619837045669556e-01" nType="-99"/>
              </Node>
            </Node>
            <Node pos="r" depth="1" NCoef="0" IVar="2" Cut="7.5562220811843872e-01" cType="0" res="-2.4369331076741219e-02" rms="4.0345069766044617e-01" purity="5.2335453033447266e-01" nType="0">
              <Node pos="l" depth="2" NCoef="0" IVar="1" Cut="6.4537208527326584e-03" cType="1" res="1.5447045676410198e-02" rms="4.1803419589996338e-01" purity="6.9072937965393066e-01" nType="0">
                <Node pos="l" depth="3" NCoef="0" IVar="-1" Cut="0.0000000000000000e+00" cType="1" res="2.8771370649337769e-02" rms="3.5231834650039673e-01" purity="8.2732641696929932e-01" nType="-99"/>
                <Node pos="r" depth="3" NCoef="0" IVar="-1" Cut="0.0000000000000000e+00" cType="1" res="-1.8595390021800995e-02" rms="4.5754876732826233e-01" purity="5.5024766921997070e-01" nType="-99"/>
              </Node>
              <Node pos="r" depth="2" NCoef="0" IVar="-1" Cut="0.0000000000000000e+00" cType="1" res="-3.0223224312067032e-02" rms="3.5669630765914917e-01" purity="1.7135994136333466e-01" nType="-99"/>
            </Node>
          </Node>
        </BinaryTree>
        <BinaryTree type="DecisionTree" boostWeight="1.0000000000000000e+00" itree="21">
          <Node pos="s" depth="0" NCoef="0" IVar="2" Cut="4.3028485774993896e-01" cType="0" res="5.2499152719974518e-02" rms="1.7046608030796051e-01" purity="9.4764471054077148e-01" nType="0">
            <Node pos="l" depth="1" NCoef="0" IVar="7" Cut="6.9324231147766113e-01" cType="1" res="5.5976688861846924e-02" rms="1.5988045930862427e-01" purity="9.6664941310882568e-01" nType="0">
              <Node pos="l" depth="2" NCoef="0" IVar="8" Cut="9.2087395489215851e-02" cType="0" res="5.7645935565233231e-02" rms="1.5206634998321533e-01" purity="9.7047001123428345e-01" nType="0">
                <Node pos="l" depth="3" NCoef="0" IVar="-1" Cut="0.0000000000000000e+00" cType="1" res="4.1829168796539307e-02" rms="1.3269598782062531e-01" purity="9.7764217853546143e-01" nType="-99"/>
                <Node pos="r" depth="3" NCoef="0" IVar="-1" Cut="0.0000000000000000e+00" cType="1" res="1.3942694291472435e-02" rms="2.5073096156120300e-01" purity="9.1724479198455811e-01" nType="-99"/>
              </Node>
              <Node pos="r" depth="2" NCoef="0" IVar="-1" Cut="0.0000000000000000e+00" cType="1" res="-1.0657736100256443e-02" rms="3.7792620062828064e-01" purity="7.7119570970535278e-01" nType="-99"/>
            </Node>
            <Node pos="r" depth="1" NCoef="0" IVar="-1" Cut="0.0000000000000000e+00" cType="1" res="-1.9142040982842445e-02" rms="3.6668303608894348e-01" purity="2.9509913921356201e-01" nType="-99"/>
          </Node>
        </BinaryTree>
        <BinaryTree type="DecisionTree" boostWeight="1.0000000000000000e+00" itree="22">
          <Node pos="s" depth="0" NCoef="0" IVar="4" Cut="2.0224888324737549e+00" cType="0" res="4.7420907765626907e-02" rms="1.7022229731082916e-01" purity="9.4764471054077148e-01" nType="0">
            <Node pos="l" depth="1" NCoef="0" IVar="6" Cut="7.6065383851528168e-02" cType="1" res="5.3039688616991043e-02" rms="1.3696019351482391e-01" purity="9.7927474975585938e-01" nType="0">
              <Node pos="l" depth="2" NCoef="0" IVar="4" Cut="4.0254874229431152e+00" cType="0" res="5.4378952831029892e-02" rms="1.2945239245891571e-01" purity="9.8158288002014160e-01" nType="0">
                <Node pos="l" depth="3" NCoef="0" IVar="-1" Cut="0.0000000000000000e+00" cType="1" res="4.5435726642608643e-02" rms="1.0249469429254532e-01" purity="9.8920941352844238e-01" nType="-99"/>
                <Node pos="r" depth="3" NCoef="0" IVar="-1" Cut="0.0000000000000000e+00" cType="1" res="2.1650124341249466e-02" rms="2.2133278846740723e-01" purity="9.4175910949707031e-01" nType="-99"/>
              </Node>
              <Node pos="r" depth="2" NCoef="0" IVar="-1" Cut="0.0000000000000000e+00" cType="1" res="-5.8190650306642056e-03" rms="3.3459290862083435e-01" purity="8.6670625209808350e-01" nType="-99"/>
            </Node>
            <Node pos="r" depth="1" NCoef="0" IVar="5" Cut="1.4006996154785156e+01" cType="1" res="-2.7950324118137360e-02" rms="3.9991378784179688e-01" purity="5.2335453033447266e-01" nType="0">
              <Node pos="l" depth="2" NCoef="0" IVar="12" Cut="4.0628112852573395e-02" cType="1" res="1.2510625645518303e-02" rms="3.9507940411567688e-01" purity="5.8840686082839966e-01" nType="0">
                <Node pos="l" depth="3" NCoef="0" IVar="-1" Cut="0.0000000000000000e+00" cType="1" res="1.3435780070722103e-02" rms="3.7433710694313049e-01" purity="6.4686596393585205e-01" nType="-99"/>
                <Node pos="r" depth="3" NCoef="0" IVar="-1" Cut="0.0000000000000000e+00" cType="1" res="-6.3743512146174908e-03" rms="4.1252261400222778e-01" purity="5.2712541818618774e-01" nType="-99"/>
              </Node>
              <Node pos="r" depth="2" NCoef="0" IVar="-1" Cut="0.0000000000000000e+00" cType="1" res="-2.8591776266694069e-02" rms="3.9716190099716187e-01" purity="3.9239183068275452e-01" nType="-99"/>
            </Node>
          </Node>
        </BinaryTree>
        <BinaryTree type="DecisionTree" boostWeight="1.0000000000000000e+00" itree="23">
          <Node pos="s" depth="0" NCoef="0" IVar="4" Cut="2.0224888324737549e+00" cType="0" res="4.2857304215431213e-02" rms="1.6976831853389740e-01" purity="9.4764471054077148e-01" nType="0">
            <Node pos="l" depth="1" NCoef="0" IVar="11" Cut="1.5640726685523987e-01" cType="1" res="4.7927133738994598e-02" rms="1.3690114021301270e-01" purity="9.7927474975585938e-01" nType="0">
              <Node pos="l" depth="2" NCoef="0" IVar="7" Cut="6.4152997732162476e-01" cType="1" res="5.2488230168819427e-02" rms="1.1241451650857925e-01" purity="9.8613184690475464e-01" nType="0">
                <Node pos="l" depth="3" NCoef="0" IVar="-1" Cut="0.0000000000000000e+00" cType="1" res="4.4065766036510468e-02" rms="1.0549627989530563e-01" purity="9.8793268203735352e-01" nType="-99"/>
                <Node pos="r" depth="3" NCoef="0" IVar="-1" Cut="0.0000000000000000e+00" cType="1" res="9.1459872201085091e-03" rms="2.5703319907188416e-01" purity="9.2059046030044556e-01" nType="-99"/>
              </Node>
              <Node pos="r" depth="2" NCoef="0" IVar="4" Cut="4.0254874229431152e+00" cType="0" res="3.0081974342465401e-02" rms="2.0549282431602478e-01" purity="9.5244657993316650e-01" nType="0">
                <Node pos="l" depth="3" NCoef="0" IVar="-1" Cut="0.0000000000000000e+00" cType="1" res="2.9571838676929474e-02" rms="1.7616815865039825e-01" purity="9.6684354543685913e-01" nType="-99"/>
                <Node pos="r" depth="3" NCoef="0" IVar="-1" Cut="0.0000000000000000e+00" cType="1" res="-1.9322374835610390e-02" rms="3.3981040120124817e-01" purity="8.5169261693954468e-01" nType="-99"/>
              </Node>
            </Node>
            <Node pos="r" depth="1" NCoef="0" IVar="6" Cut="1.5179277397692204e-02" cType="1" res="-2.5150166824460030e-02" rms="3.9882034063339233e-01" purity="5.2335453033447266e-01" nType="0">
              <Node pos="l" depth="2" NCoef="0" IVar="7" Cut="6.1935406923294067e-01" cType="1" res="1.4795335941016674e-02" rms="3.9072474837303162e-01" purity="5.9719789028167725e-01" nType="0">
                <Node pos="l" depth="3" NCoef="0" IVar="-1" Cut="0.0000000000000000e+00" cType="1" res="1.3982514850795269e-02" rms="3.6103287339210510e-01" purity="6.6963070631027222e-01" nType="-99"/>
                <Node pos="r" depth="3" NCoef="0" IVar="-1" Cut="0.0000000000000000e+00" cType="1" res="-8.8591501116752625e-03" rms="4.2394575476646423e-01" purity="4.9656271934509277e-01" nType="-99"/>
              </Node>
              <Node pos="r" depth="2" NCoef="0" IVar="-1" Cut="0.0000000000000000e+00" cType="1" res="-2.4620220065116882e-02" rms="4.0316319465637207e-01" purity="3.9202016592025757e-01" nType="-99"/>
            </Node>
          </Node>
        </BinaryTree>
        <BinaryTree type="DecisionTree" boostWeight="1.0000000000000000e+00" itree="24">
          <Node pos="s" depth="0" NCoef="0" IVar="2" Cut="5.4472762346267700e-01" cType="0" res="3.8732543587684631e-02" rms="1.6933462023735046e-01" purity="9.4764471054077148e-01" nType="0">
            <Node pos="l" depth="1" NCoef="0" IVar="12" Cut="1.1555770784616470e-01" cType="1" res="4.2046666145324707e-02" rms="1.5757395327091217e-01" purity="9.6733182668685913e-01" nType="0">
              <Node pos="l" depth="2" NCoef="0" IVar="7" Cut="6.8862664699554443e-01" cType="1" res="4.6445243060588837e-02" rms="1.4206701517105103e-01" purity="9.7330898046493530e-01" nType="0">
                <Node pos="l" depth="3" NCoef="0" IVar="-1" Cut="0.0000000000000000e+00" cType="1" res="3.8614690303802490e-02" rms="1.3211026787757874e-01" purity="9.7761923074722290e-01" nType="-99"/>
                <Node pos="r" depth="3" NCoef="0" IVar="-1" Cut="0.0000000000000000e+00" cType="1" res="-6.0306452214717865e-03" rms="3.6453798413276672e-01" purity="7.8902107477188110e-01" nType="-99"/>
              </Node>
              <Node pos="r" depth="2" NCoef="0" IVar="4" Cut="4.0139927864074707e+00" cType="0" res="1.9025562331080437e-02" rms="2.2026589512825012e-01" purity="9.3604910373687744e-01" nType="0">
                <Node pos="l" depth="3" NCoef="0" IVar="-1" Cut="0.0000000000000000e+00" cType="1" res="2.7874415740370750e-02" rms="1.7311987280845642e-01" purity="9.6819013357162476e-01" nType="-99"/>
                <Node pos="r" depth="3" NCoef="0" IVar="-1" Cut="0.0000000000000000e+00" cType="1" res="-2.5977119803428650e-02" rms="3.7341910600662231e-01" purity="7.6497280597686768e-01" nType="-99"/>
              </Node>
            </Node>
            <Node pos="r" depth="1" NCoef="0" IVar="-1" Cut="0.0000000000000000e+00" cType="1" res="-1.7061851918697357e-02" rms="3.5549196600914001e-01" purity="4.0270844101905823e-01" nType="-99"/>
          </Node>
        </BinaryTree>
        <BinaryTree type="DecisionTree" boostWeight="1.0000000000000000e+00" itree="25">
          <Node pos="s" depth="0" NCoef="0" IVar="4" Cut="3.0194902420043945e+00" cType="0" res="3.4987557679414749e-02" rms="1.6902552545070648e-01" purity="9.4764471054077148e-01" nType="0">
            <Node pos="l" depth="1" NCoef="0" IVar="6" Cut="6.7402131855487823e-02" cType="1" res="4.1591890156269073e-02" rms="1.2239181250333786e-01" purity="9.8406308889389038e-01" nType="0">
              <Node pos="l" depth="2" NCoef="0" IVar="12" Cut="1.4628659188747406e-01" cType="1" res="4.3236188590526581e-02" rms="1.1047300696372986e-01" purity="9.8718076944351196e-01" nType="0">
                <Node pos="l" depth="3" NCoef="0" IVar="-1" Cut="0.0000000000000000e+00" cType="1" res="4.2836982756853104e-02" rms="1.0218264907598495e-01" purity="9.8908251523971558e-01" nType="-99"/>
                <Node pos="r" depth="3" NCoef="0" IVar="-1" Cut="0.0000000000000000e+00" cType="1" res="2.1031809970736504e-02" rms="1.8607407808303833e-01" purity="9.6257078647613525e-01" nType="-99"/>
              </Node>
              <Node pos="r" depth="2" NCoef="0" IVar="-1" Cut="0.0000000000000000e+00" cType="1" res="-2.0660083100665361e-04" rms="2.8974330425262451e-01" purity="9.0453392267227173e-01" nType="-99"/>
            </Node>
            <Node pos="r" depth="1" NCoef="0" IVar="5" Cut="1.7019491195678711e+01" cType="1" res="-9.8209232091903687e-03" rms="3.4419363737106323e-01" purity="7.0055639743804932e-01" nType="0">
              <Node pos="l" depth="2" NCoef="0" IVar="2" Cut="8.0109947919845581e-01" cType="0" res="9.6787884831428528e-03" rms="3.3405885100364685e-01" purity="7.3517042398452759e-01" nType="0">
                <Node pos="l" depth="3" NCoef="0" IVar="-1" Cut="0.0000000000000000e+00" cType="1" res="1.2114111334085464e-02" rms="3.1502574682235718e-01" purity="8.4903573989868164e-01" nType="-99"/>
                <Node pos="r" depth="3" NCoef="0" IVar="-1" Cut="0.0000000000000000e+00" cType="1" res="-2.1606659516692162e-02" rms="3.8662275671958923e-01" purity="3.1150108575820923e-01" nType="-99"/>
              </Node>
              <Node pos="r" depth="2" NCoef="0" IVar="-1" Cut="0.0000000000000000e+00" cType="1" res="-3.3942703157663345e-02" rms="3.7513545155525208e-01" purity="5.3624391555786133e-01" nType="-99"/>
            </Node>
          </Node>
        </BinaryTree>
        <BinaryTree type="DecisionTree" boostWeight="1.0000000000000000e+00" itree="26">
          <Node pos="s" depth="0" NCoef="0" IVar="4" Cut="3.0194902420043945e+00" cType="0" res="3.1621862202882767e-02" rms="1.6857221722602844e-01" purity="9.4764471054077148e-01" nType="0">
            <Node pos="l" depth="1" NCoef="0" IVar="6" Cut="4.8558276146650314e-02" cType="1" res="3.7583183497190475e-02" rms="1.2234219163656235e-01" purity="9.8406308889389038e-01" nType="0">
              <Node pos="l" depth="2" NCoef="0" IVar="12" Cut="7.3186688125133514e-02" cType="1" res="4.0256466716527939e-02" rms="1.0156594961881638e-01" purity="9.8918843269348145e-01" nType="0">
                <Node pos="l" depth="3" NCoef="0" IVar="-1" Cut="0.0000000000000000e+00" cType="1" res="4.5306157320737839e-02" rms="8.4078811109066010e-02" purity="9.9272334575653076e-01" nType="-99"/>
                <Node pos="r" depth="3" NCoef="0" IVar="-1" Cut="0.0000000000000000e+00" cType="1" res="3.4688170999288559e-02" rms="1.3087299466133118e-01" purity="9.8171418905258179e-01" nType="-99"/>
              </Node>
              <Node pos="r" depth="2" NCoef="0" IVar="4" Cut="7.0194902420043945e+00" cType="0" res="1.5993909910321236e-02" rms="2.2806316614151001e-01" purity="9.4267147779464722e-01" nType="0">
                <Node pos="l" depth="3" NCoef="0" IVar="-1" Cut="0.0000000000000000e+00" cType="1" res="2.6138082146644592e-02" rms="1.8597815930843353e-01" purity="9.6336311101913452e-01" nType="-99"/>
                <Node pos="r" depth="3" NCoef="0" IVar="-1" Cut="0.0000000000000000e+00" cType="1" res="-1.0652673430740833e-02" rms="2.8312963247299194e-01" purity="9.0743732452392578e-01" nType="-99"/>
              </Node>
            </Node>
            <Node pos="r" depth="1" NCoef="0" IVar="6" Cut="3.3256944268941879e-02" cType="1" res="-8.8239870965480804e-03" rms="3.4320122003555298e-01" purity="7.0055639743804932e-01" nType="0">
              <Node pos="l" depth="2" NCoef="0" IVar="2" Cut="8.0109947919845581e-01" cType="0" res="8.0054597929120064e-03" rms="3.3040621876716614e-01" purity="7.3265594244003296e-01" nType="0">
                <Node pos="l" depth="3" NCoef="0" IVar="-1" Cut="0.0000000000000000e+00" cType="1" res="1.0672502219676971e-02" rms="3.1319004297256470e-01" purity="8.4782838821411133e-01" nType="-99"/>
                <Node pos="r" depth="3" NCoef="0" IVar="-1" Cut="0.0000000000000000e+00" cType="1" res="-2.0330030471086502e-02" rms="3.8046014308929443e-01" purity="2.9441294074058533e-01" nType="-99"/>
              </Node>
              <Node pos="r" depth="2" NCoef="0" IVar="-1" Cut="0.0000000000000000e+00" cType="1" res="-3.3289879560470581e-02" rms="3.9647591114044189e-01" purity="5.1061922311782837e-01" nType="-99"/>
            </Node>
          </Node>
        </BinaryTree>
        <BinaryTree type="DecisionTree" boostWeight="1.0000000000000000e+00" itree="27">
          <Node pos="s" depth="0" NCoef="0" IVar="4" Cut="2.0224888324737549e+00" cType="0" res="2.8581418097019196e-02" rms="1.6817222535610199e-01" purity="9.4764471054077148e-01" nType="0">
            <Node pos="l" depth="1" NCoef="0" IVar="8" Cut="4.7505367547273636e-02" cType="0" res="3.2448627054691315e-02" rms="1.3627822697162628e-01" purity="9.7927474975585938e-01" nType="0">
              <Node pos="l" depth="2" NCoef="0" IVar="4" Cut="5.0239877700805664e+00" cType="0" res="3.4969769418239594e-02" rms="1.2139962613582611e-01" purity="9.8371636867523193e-01" nType="0">
                <Node pos="l" depth="3" NCoef="0" IVar="-1" Cut="0.0000000000000000e+00" cType="1" res="4.3198563158512115e-02" rms="9.0487375855445862e-02" purity="9.9164545536041260e-01" nType="-99"/>
                <Node pos="r" depth="3" NCoef="0" IVar="-1" Cut="0.0000000000000000e+00" cType="1" res="2.3194817826151848e-02" rms="1.7721350491046906e-01" purity="9.6341830492019653e-01" nType="-99"/>
              </Node>
              <Node pos="r" depth="2" NCoef="0" IVar="4" Cut="6.0184907913208008e+00" cType="0" res="2.2062645293772221e-03" rms="2.5213149189949036e-01" purity="9.2599487304687500e-01" nType="0">
                <Node pos="l" depth="3" NCoef="0" IVar="-1" Cut="0.0000000000000000e+00" cType="1" res="1.8771365284919739e-02" rms="2.0221461355686188e-01" purity="9.5594328641891479e-01" nType="-99"/>
                <Node pos="r" depth="3" NCoef="0" IVar="-1" Cut="0.0000000000000000e+00" cType="1" res="-2.0527558401226997e-02" rms="3.1361132860183716e-01" purity="8.7753856182098389e-01" nType="-99"/>
              </Node>
            </Node>
            <Node pos="r" depth="1" NCoef="0" IVar="11" Cut="5.3892668336629868e-02" cType="1" res="-2.3293947800993919e-02" rms="3.9451703429222107e-01" purity="5.2335453033447266e-01" nType="0">
              <Node pos="l" depth="2" NCoef="0" IVar="-1" Cut="0.0000000000000000e+00" cType="1" res="9.4385724514722824e-03" rms="3.7621244788169861e-01" purity="6.2423038482666016e-01" nType="-99"/>
              <Node pos="r" depth="2" NCoef="0" IVar="5" Cut="1.3012494087219238e+01" cType="1" res="-6.3011229038238525e-02" rms="4.0237972140312195e-01" purity="4.5144921541213989e-01" nType="0">
                <Node pos="l" depth="3" NCoef="0" IVar="-1" Cut="0.0000000000000000e+00" cType="1" res="-5.0851237028837204e-03" rms="4.0690767765045166e-01" purity="5.4302728176116943e-01" nType="-99"/>
                <Node pos="r" depth="3" NCoef="0" IVar="-1" Cut="0.0000000000000000e+00" cType="1" res="-2.8281558305025101e-02" rms="3.9317712187767029e-01" purity="3.6296629905700684e-01" nType="-99"/>
              </Node>
            </Node>
          </Node>
        </BinaryTree>
        <BinaryTree type="DecisionTree" boostWeight="1.0000000000000000e+00" itree="28">
          <Node pos="s" depth="0" NCoef="0" IVar="2" Cut="5.8620691299438477e-01" cType="0" res="2.5828611105680466e-02" rms="1.6786453127861023e-01" purity="9.4764471054077148e-01" nType="0">
            <Node pos="l" depth="1" NCoef="0" IVar="7" Cut="6.9197118282318115e-01" cType="1" res="2.8473434969782829e-02" rms="1.5609142184257507e-01" purity="9.6756321191787720e-01" nType="0">
              <Node pos="l" depth="2" NCoef="0" IVar="8" Cut="1.4013299345970154e-01" cType="0" res="2.9731864109635353e-02" rms="1.4840957522392273e-01" purity="9.7133737802505493e-01" nType="0">
                <Node pos="l" depth="3" NCoef="0" IVar="-1" Cut="0.0000000000000000e+00" cType="1" res="3.5061761736869812e-02" rms="1.2664887309074402e-01" purity="9.7932577133178711e-01" nType="-99"/>
                <Node pos="r" depth="3" NCoef="0" IVar="-1" Cut="0.0000000000000000e+00" cType="1" res="6.4332205802202225e-03" rms="2.2898629307746887e-01" purity="9.3002909421920776e-01" nType="-99"/>
              </Node>
              <Node pos="r" depth="2" NCoef="0" IVar="-1" Cut="0.0000000000000000e+00" cType="1" res="-1.3729773461818695e-02" rms="3.7290975451469421e-01" purity="7.7577090263366699e-01" nType="-99"/>
            </Node>
            <Node pos="r" depth="1" NCoef="0" IVar="12" Cut="5.3612027317285538e-02" cType="1" res="-4.0245018899440765e-02" rms="3.4484720230102539e-01" purity="4.5003607869148254e-01" nType="0">
              <Node pos="l" depth="2" NCoef="0" IVar="-1" Cut="0.0000000000000000e+00" cType="1" res="-1.8772227922454476e-03" rms="3.3979552984237671e-01" purity="4.9051570892333984e-01" nType="-99"/>
              <Node pos="r" depth="2" NCoef="0" IVar="-1" Cut="0.0000000000000000e+00" cType="1" res="-2.6424977928400040e-02" rms="3.4629592299461365e-01" purity="4.1161024570465088e-01" nType="-99"/>
            </Node>
          </Node>
        </BinaryTree>
        <BinaryTree type="DecisionTree" boostWeight="1.0000000000000000e+00" itree="29">
          <Node pos="s" depth="0" NCoef="0" IVar="4" Cut="3.0194902420043945e+00" cType="0" res="2.3321980610489845e-02" rms="1.6771641373634338e-01" purity="9.4764471054077148e-01" nType="0">
            <Node pos="l" depth="1" NCoef="0" IVar="6" Cut="7.5618050992488861e-02" cType="1" res="2.8517903760075569e-02" rms="1.2212322652339935e-01" purity="9.8406308889389038e-01" nType="0">
              <Node pos="l" depth="2" NCoef="0" IVar="12" Cut="1.3797485828399658e-01" cType="1" res="2.9608245939016342e-02" rms="1.1365641653537750e-01" purity="9.8635536432266235e-01" nType="0">
                <Node pos="l" depth="3" NCoef="0" IVar="-1" Cut="0.0000000000000000e+00" cType="1" res="3.8781926035881042e-02" rms="1.0306129604578018e-01" purity="9.8885315656661987e-01" nType="-99"/>
                <Node pos="r" depth="3" NCoef="0" IVar="-1" Cut="0.0000000000000000e+00" cType="1" res="1.4237836003303528e-02" rms="1.8687233328819275e-01" purity="9.6212035417556763e-01" nType="-99"/>
              </Node>
              <Node pos="r" depth="2" NCoef="0" IVar="-1" Cut="0.0000000000000000e+00" cType="1" res="-1.1905746534466743e-02" rms="3.2130733132362366e-01" purity="8.7975496053695679e-01" nType="-99"/>
            </Node>
            <Node pos="r" depth="1" NCoef="0" IVar="11" Cut="5.3892668336629868e-02" cType="1" res="-1.1930865235626698e-02" rms="3.4111711382865906e-01" purity="7.0055639743804932e-01" nType="0">
              <Node pos="l" depth="2" NCoef="0" IVar="12" Cut="4.3744690716266632e-02" cType="1" res="3.1190559267997742e-02" rms="3.0318322777748108e-01" purity="7.7994352579116821e-01" nType="0">
                <Node pos="l" depth="3" NCoef="0" IVar="-1" Cut="0.0000000000000000e+00" cType="1" res="2.4537423625588417e-02" rms="2.7349075675010681e-01" purity="8.2932555675506592e-01" nType="-99"/>
                <Node pos="r" depth="3" NCoef="0" IVar="-1" Cut="0.0000000000000000e+00" cType="1" res="-2.1612989075947553e-04" rms="3.3322721719741821e-01" purity="7.1951586008071899e-01" nType="-99"/>
              </Node>
              <Node pos="r" depth="2" NCoef="0" IVar="5" Cut="1.4006996154785156e+01" cType="1" res="-4.3641697615385056e-02" rms="3.6326479911804199e-01" purity="6.4217638969421387e-01" nType="0">
                <Node pos="l" depth="3" NCoef="0" IVar="-1" Cut="0.0000000000000000e+00" cType="1" res="-4.8751155845820904e-03" rms="3.5101824998855591e-01" purity="7.1109253168106079e-01" nType="-99"/>
                <Node pos="r" depth="3" NCoef="0" IVar="-1" Cut="0.0000000000000000e+00" cType="1" res="-3.0202090740203857e-02" rms="3.7613663077354431e-01" purity="5.3981971740722656e-01" nType="-99"/>
              </Node>
            </Node>
          </Node>
        </BinaryTree>
        <BinaryTree type="DecisionTree" boostWeight="1.0000000000000000e+00" itree="30">
          <Node pos="s" depth="0" NCoef="0" IVar="4" Cut="3.0194902420043945e+00" cType="0" res="2.1077435463666916e-02" rms="1.6736853122711182e-01" purity="9.4764471054077148e-01" nType="0">
            <Node pos="l" depth="1" NCoef="0" IVar="11" Cut="2.5420758128166199e-01" cType="1" res="2.5763349607586861e-02" rms="1.2209365516901016e-01" purity="9.8406308889389038e-01" nType="0">
              <Node pos="l" depth="2" NCoef="0" IVar="12" Cut="1.5174748003482819e-01" cType="1" res="2.7504460886120796e-02" rms="1.0993263870477676e-01" purity="9.8722153902053833e-01" nType="0">
                <Node pos="l" depth="3" NCoef="0" IVar="-1" Cut="0.0000000000000000e+00" cType="1" res="3.8477789610624313e-02" rms="9.9673770368099213e-02" purity="9.8958092927932739e-01" nType="-99"/>
                <Node pos="r" depth="3" NCoef="0" IVar="-1" Cut="0.0000000000000000e+00" cType="1" res="1.1360732838511467e-02" rms="1.9867031276226044e-01" purity="9.5687443017959595e-01" nType="-99"/>
              </Node>
              <Node pos="r" depth="2" NCoef="0" IVar="4" Cut="7.0074963569641113e+00" cType="0" res="-1.7107683233916759e-03" rms="2.4213474988937378e-01" purity="9.3422460556030273e-01" nType="0">
                <Node pos="l" depth="3" NCoef="0" IVar="-1" Cut="0.0000000000000000e+00" cType="1" res="1.4208254404366016e-02" rms="2.0397266745567322e-01" purity="9.5527797937393188e-01" nType="-99"/>
                <Node pos="r" depth="3" NCoef="0" IVar="-1" Cut="0.0000000000000000e+00" cType="1" res="-2.0411543548107147e-02" rms="2.8335258364677429e-01" purity="9.0622925758361816e-01" nType="-99"/>
              </Node>
            </Node>
            <Node pos="r" depth="1" NCoef="0" IVar="12" Cut="4.6566929668188095e-02" cType="1" res="-1.0715144686400890e-02" rms="3.4024780988693237e-01" purity="7.0055639743804932e-01" nType="0">
              <Node pos="l" depth="2" NCoef="0" IVar="11" Cut="3.1467530876398087e-02" cType="1" res="2.4944387376308441e-02" rms="3.0334153771400452e-01" purity="7.7446728944778442e-01" nType="0">
                <Node pos="l" depth="3" NCoef="0" IVar="-1" Cut="0.0000000000000000e+00" cType="1" res="2.7481591328978539e-02" rms="2.6506525278091431e-01" purity="8.3981364965438843e-01" nType="-99"/>
                <Node pos="r" depth="3" NCoef="0" IVar="-1" Cut="0.0000000000000000e+00" cType="1" res="2.3104029241949320e-03" rms="3.1926491856575012e-01" purity="7.4141210317611694e-01" nType="-99"/>
              </Node>
              <Node pos="r" depth="2" NCoef="0" IVar="5" Cut="1.6020990371704102e+01" cType="1" res="-4.3497759848833084e-02" rms="3.6791449785232544e-01" purity="6.3260847330093384e-01" nType="0">
                <Node pos="l" depth="3" NCoef="0" IVar="-1" Cut="0.0000000000000000e+00" cType="1" res="-7.3923654854297638e-03" rms="3.5938665270805359e-01" purity="6.8625116348266602e-01" nType="-99"/>
                <Node pos="r" depth="3" NCoef="0" IVar="-1" Cut="0.0000000000000000e+00" cType="1" res="-3.1775303184986115e-02" rms="3.8144484162330627e-01" purity="5.0952512025833130e-01" nType="-99"/>
              </Node>
            </Node>
          </Node>
        </BinaryTree>
        <BinaryTree type="DecisionTree" boostWeight="1.0000000000000000e+00" itree="31">
          <Node pos="s" depth="0" NCoef="0" IVar="1" Cut="5.2145427465438843e-01" cType="1" res="1.9049350172281265e-02" rms="1.6706384718418121e-01" purity="9.4764471054077148e-01" nType="0">
            <Node pos="l" depth="1" NCoef="0" IVar="4" Cut="1.0254873037338257e+00" cType="0" res="2.0718157291412354e-02" rms="1.6150058805942535e-01" purity="9.5391601324081421e-01" nType="0">
              <Node pos="l" depth="2" NCoef="0" IVar="6" Cut="5.9632468968629837e-02" cType="1" res="2.2663097828626633e-02" rms="1.4569799602031708e-01" purity="9.7536653280258179e-01" nType="0">
                <Node pos="l" depth="3" NCoef="0" IVar="-1" Cut="0.0000000000000000e+00" cType="1" res="2.9657414183020592e-02" rms="1.3356323540210724e-01" purity="9.7949659824371338e-01" nType="-99"/>
                <Node pos="r" depth="3" NCoef="0" IVar="-1" Cut="0.0000000000000000e+00" cType="1" res="-5.9946710243821144e-03" rms="2.7520838379859924e-01" purity="9.0764999389648438e-01" nType="-99"/>
              </Node>
              <Node pos="r" depth="2" NCoef="0" IVar="-1" Cut="0.0000000000000000e+00" cType="1" res="-9.7525650635361671e-03" rms="4.0904065966606140e-01" purity="3.1451001763343811e-01" nType="-99"/>
            </Node>
            <Node pos="r" depth="1" NCoef="0" IVar="-1" Cut="0.0000000000000000e+00" cType="1" res="-2.7807284146547318e-02" rms="3.3835124969482422e-01" purity="6.2481778860092163e-01" nType="-99"/>
          </Node>
        </BinaryTree>
        <BinaryTree type="DecisionTree" boostWeight="1.0000000000000000e+00" itree="32">
          <Node pos="s" depth="0" NCoef="0" IVar="4" Cut="4.0164918899536133e+00" cType="0" res="1.7200106754899025e-02" rms="1.6692964732646942e-01" purity="9.4764471054077148e-01" nType="0">
            <Node pos="l" depth="1" NCoef="0" IVar="6" Cut="7.5090423226356506e-02" cType="1" res="2.3167768493294716e-02" rms="1.1138508468866348e-01" purity="9.8696708679199219e-01" nType="0">
              <Node pos="l" depth="2" NCoef="0" IVar="11" Cut="1.4204686880111694e-01" cType="1" res="2.4018077179789543e-02" rms="1.0175728052854538e-01" purity="9.8930490016937256e-01" nType="0">
                <Node pos="l" depth="3" NCoef="0" IVar="-1" Cut="0.0000000000000000e+00" cType="1" res="4.0900185704231262e-02" rms="8.2898586988449097e-02" purity="9.9297904968261719e-01" nType="-99"/>
                <Node pos="r" depth="3" NCoef="0" IVar="-1" Cut="0.0000000000000000e+00" cType="1" res="2.2860953584313393e-02" rms="1.4722429215908051e-01" purity="9.7730278968811035e-01" nType="-99"/>
              </Node>
              <Node pos="r" depth="2" NCoef="0" IVar="-1" Cut="0.0000000000000000e+00" cType="1" res="-6.8046860396862030e-03" rms="3.0949339270591736e-01" purity="8.9054375886917114e-01" nType="-99"/>
            </Node>
            <Node pos="r" depth="1" NCoef="0" IVar="11" Cut="9.5487684011459351e-02" cType="1" res="-4.2793173342943192e-03" rms="2.8795331716537476e-01" purity="8.0611151456832886e-01" nType="0">
              <Node pos="l" depth="2" NCoef="0" IVar="2" Cut="7.5712144374847412e-01" cType="0" res="1.5998018905520439e-02" rms="2.5741335749626160e-01" purity="8.4799802303314209e-01" nType="0">
                <Node pos="l" depth="3" NCoef="0" IVar="-1" Cut="0.0000000000000000e+00" cType="1" res="1.5454284846782684e-02" rms="2.3389416933059692e-01" purity="9.2008113861083984e-01" nType="-99"/>
                <Node pos="r" depth="3" NCoef="0" IVar="-1" Cut="0.0000000000000000e+00" cType="1" res="-1.3557503931224346e-02" rms="3.6826062202453613e-01" purity="3.9433780312538147e-01" nType="-99"/>
              </Node>
              <Node pos="r" depth="2" NCoef="0" IVar="5" Cut="1.7018989562988281e+01" cType="1" res="-4.1485846042633057e-02" rms="3.3367529511451721e-01" purity="7.2925466299057007e-01" nType="0">
                <Node pos="l" depth="3" NCoef="0" IVar="-1" Cut="0.0000000000000000e+00" cType="1" res="-1.0656130500137806e-02" rms="3.1989714503288269e-01" purity="7.7629226446151733e-01" nType="-99"/>
                <Node pos="r" depth="3" NCoef="0" IVar="-1" Cut="0.0000000000000000e+00" cType="1" res="-4.1530784219503403e-02" rms="3.6646312475204468e-01" purity="5.8299434185028076e-01" nType="-99"/>
              </Node>
            </Node>
          </Node>
        </BinaryTree>
        <BinaryTree type="DecisionTree" boostWeight="1.0000000000000000e+00" itree="33">
          <Node pos="s" depth="0" NCoef="0" IVar="1" Cut="5.2145427465438843e-01" cType="1" res="1.5547649003565311e-02" rms="1.6662265360355377e-01" purity="9.4764471054077148e-01" nType="0">
            <Node pos="l" depth="1" NCoef="0" IVar="7" Cut="7.1357983350753784e-01" cType="1" res="1.7014082521200180e-02" rms="1.6122357547283173e-01" purity="9.5391601324081421e-01" nType="0">
              <Node pos="l" depth="2" NCoef="0" IVar="8" Cut="5.1048446446657181e-02" cType="0" res="1.8348494544625282e-02" rms="1.5330217778682709e-01" purity="9.6009755134582520e-01" nType="0">
                <Node pos="l" depth="3" NCoef="0" IVar="-1" Cut="0.0000000000000000e+00" cType="1" res="2.5908064097166061e-02" rms="1.3924886286258698e-01" purity="9.6672356128692627e-01" nType="-99"/>
                <Node pos="r" depth="3" NCoef="0" IVar="-1" Cut="0.0000000000000000e+00" cType="1" res="-7.6987370848655701e-03" rms="2.6154363155364990e-01" purity="8.8625317811965942e-01" nType="-99"/>
              </Node>
              <Node pos="r" depth="2" NCoef="0" IVar="-1" Cut="0.0000000000000000e+00" cType="1" res="-1.9629614427685738e-02" rms="3.8636782765388489e-01" purity="6.3612979650497437e-01" nType="-99"/>
            </Node>
            <Node pos="r" depth="1" NCoef="0" IVar="-1" Cut="0.0000000000000000e+00" cType="1" res="-2.5197554379701614e-02" rms="3.3626157045364380e-01" purity="6.2481778860092163e-01" nType="-99"/>
          </Node>
        </BinaryTree>
        <BinaryTree type="DecisionTree" boostWeight="1.0000000000000000e+00" itree="34">
          <Node pos="s" depth="0" NCoef="0" IVar="4" Cut="2.0224888324737549e+00" cType="0" res="1.4029743149876595e-02" rms="1.6650341451168060e-01" purity="9.4764471054077148e-01" nType="0">
            <Node pos="l" depth="1" NCoef="0" IVar="12" Cut="1.0557431727647781e-01" cType="1" res="1.7043855041265488e-02" rms="1.3547775149345398e-01" purity="9.7927474975585938e-01" nType="0">
              <Node pos="l" depth="2" NCoef="0" IVar="7" Cut="6.3241279125213623e-01" cType="1" res="2.0394934341311455e-02" rms="1.1469054222106934e-01" purity="9.8529803752899170e-01" nType="0">
                <Node pos="l" depth="3" NCoef="0" IVar="-1" Cut="0.0000000000000000e+00" cType="1" res="3.2688800245523453e-02" rms="1.0884902626276016e-01" purity="9.8689121007919312e-01" nType="-99"/>
                <Node pos="r" depth="3" NCoef="0" IVar="-1" Cut="0.0000000000000000e+00" cType="1" res="-4.6097743324935436e-03" rms="2.3836937546730042e-01" purity="9.3120181560516357e-01" nType="-99"/>
              </Node>
              <Node pos="r" depth="2" NCoef="0" IVar="4" Cut="4.0144929885864258e+00" cType="0" res="3.4104043152183294e-03" rms="1.9819039106369019e-01" purity="9.5476961135864258e-01" nType="0">
                <Node pos="l" depth="3" NCoef="0" IVar="-1" Cut="0.0000000000000000e+00" cType="1" res="1.4307498931884766e-02" rms="1.6903990507125854e-01" purity="9.6925532817840576e-01" nType="-99"/>
                <Node pos="r" depth="3" NCoef="0" IVar="-1" Cut="0.0000000000000000e+00" cType="1" res="-3.2720405608415604e-02" rms="3.2977589964866638e-01" purity="8.5619837045669556e-01" nType="-99"/>
              </Node>
            </Node>
            <Node pos="r" depth="1" NCoef="0" IVar="10" Cut="1.2422811239957809e-01" cType="1" res="-2.6402041316032410e-02" rms="3.8941788673400879e-01" purity="5.2335453033447266e-01" nType="0">
              <Node pos="l" depth="2" NCoef="0" IVar="11" Cut="4.4126883149147034e-02" cType="1" res="-1.2909985380247235e-03" rms="3.8570186495780945e-01" purity="5.7511764764785767e-01" nType="0">
                <Node pos="l" depth="3" NCoef="0" IVar="-1" Cut="0.0000000000000000e+00" cType="1" res="1.1995818465948105e-02" rms="3.6288172006607056e-01" purity="6.6052299737930298e-01" nType="-99"/>
                <Node pos="r" depth="3" NCoef="0" IVar="-1" Cut="0.0000000000000000e+00" cType="1" res="-8.2684671506285667e-03" rms="3.9851516485214233e-01" purity="5.1581346988677979e-01" nType="-99"/>
              </Node>
              <Node pos="r" depth="2" NCoef="0" IVar="-1" Cut="0.0000000000000000e+00" cType="1" res="-2.2436715662479401e-02" rms="3.9191734790802002e-01" purity="4.1587978601455688e-01" nType="-99"/>
            </Node>
          </Node>
        </BinaryTree>
        <BinaryTree type="DecisionTree" boostWeight="1.0000000000000000e+00" itree="35">
          <Node pos="s" depth="0" NCoef="0" IVar="4" Cut="3.0194902420043945e+00" cType="0" res="1.2676787562668324e-02" rms="1.6628135740756989e-01" purity="9.4764471054077148e-01" nType="0">
            <Node pos="l" depth="1" NCoef="0" IVar="11" Cut="1.9047254323959351e-01" cType="1" res="1.6607534140348434e-02" rms="1.2176768481731415e-01" purity="9.8406308889389038e-01" nType="0">
              <Node pos="l" depth="2" NCoef="0" IVar="7" Cut="6.1919432878494263e-01" cType="1" res="1.9043656066060066e-02" rms="1.0174428671598434e-01" purity="9.8906934261322021e-01" nType="0">
                <Node pos="l" depth="3" NCoef="0" IVar="-1" Cut="0.0000000000000000e+00" cType="1" res="3.4424148499965668e-02" rms="9.7558699548244476e-02" purity="9.9000370502471924e-01" nType="-99"/>
                <Node pos="r" depth="3" NCoef="0" IVar="-1" Cut="0.0000000000000000e+00" cType="1" res="-2.7328627184033394e-03" rms="2.0716673135757446e-01" purity="9.5206707715988159e-01" nType="-99"/>
              </Node>
              <Node pos="r" depth="2" NCoef="0" IVar="4" Cut="5.0064969062805176e+00" cType="0" res="1.1578176636248827e-03" rms="2.0720553398132324e-01" purity="9.5231407880783081e-01" nType="0">
                <Node pos="l" depth="3" NCoef="0" IVar="-1" Cut="0.0000000000000000e+00" cType="1" res="1.1053415015339851e-02" rms="1.8322509527206421e-01" purity="9.6392077207565308e-01" nType="-99"/>
                <Node pos="r" depth="3" NCoef="0" IVar="-1" Cut="0.0000000000000000e+00" cType="1" res="-3.2087258994579315e-02" rms="2.8942474722862244e-01" purity="8.9953273534774780e-01" nType="-99"/>
              </Node>
            </Node>
            <Node pos="r" depth="1" NCoef="0" IVar="12" Cut="4.3979875743389130e-02" cType="1" res="-1.3992187567055225e-02" rms="3.3738380670547485e-01" purity="7.0055639743804932e-01" nType="0">
              <Node pos="l" depth="2" NCoef="0" IVar="11" Cut="2.9140038415789604e-02" cType="1" res="1.8217176198959351e-02" rms="3.0040183663368225e-01" purity="7.7769714593887329e-01" nType="0">
                <Node pos="l" depth="3" NCoef="0" IVar="-1" Cut="0.0000000000000000e+00" cType="1" res="2.4700053036212921e-02" rms="2.6103851199150085e-01" purity="8.4382724761962891e-01" nType="-99"/>
                <Node pos="r" depth="3" NCoef="0" IVar="-1" Cut="0.0000000000000000e+00" cType="1" res="1.1216762941330671e-03" rms="3.1598368287086487e-01" purity="7.4668580293655396e-01" nType="-99"/>
              </Node>
              <Node pos="r" depth="2" NCoef="0" IVar="5" Cut="1.6020990371704102e+01" cType="1" res="-4.1081354022026062e-02" rms="3.6339867115020752e-01" purity="6.3567847013473511e-01" nType="0">
                <Node pos="l" depth="3" NCoef="0" IVar="-1" Cut="0.0000000000000000e+00" cType="1" res="-8.7593244388699532e-03" rms="3.5563838481903076e-01" purity="6.8836134672164917e-01" nType="-99"/>
                <Node pos="r" depth="3" NCoef="0" IVar="-1" Cut="0.0000000000000000e+00" cType="1" res="-2.8278661891818047e-02" rms="3.7753561139106750e-01" purity="5.1220160722732544e-01" nType="-99"/>
              </Node>
            </Node>
          </Node>
        </BinaryTree>
        <BinaryTree type="DecisionTree" boostWeight="1.0000000000000000e+00" itree="36">
          <Node pos="s" depth="0" NCoef="0" IVar="1" Cut="5.2145427465438843e-01" cType="1" res="1.1458863504230976e-02" rms="1.6603812575340271e-01" purity="9.4764471054077148e-01" nType="0">
            <Node pos="l" depth="1" NCoef="0" IVar="7" Cut="7.1357983350753784e-01" cType="1" res="1.2797806411981583e-02" rms="1.6074307262897491e-01" purity="9.5391601324081421e-01" nType="0">
              <Node pos="l" depth="2" NCoef="0" IVar="8" Cut="7.2568871080875397e-02" cType="0" res="1.3966163620352745e-02" rms="1.5290607511997223e-01" purity="9.6009755134582520e-01" nType="0">
                <Node pos="l" depth="3" NCoef="0" IVar="-1" Cut="0.0000000000000000e+00" cType="1" res="2.3198958486318588e-02" rms="1.3697935640811920e-01" purity="9.6757584810256958e-01" nType="-99"/>
                <Node pos="r" depth="3" NCoef="0" IVar="-1" Cut="0.0000000000000000e+00" cType="1" res="-7.5396383181214333e-03" rms="2.5236815214157104e-01" purity="8.9380162954330444e-01" nType="-99"/>
              </Node>
              <Node pos="r" depth="2" NCoef="0" IVar="-1" Cut="0.0000000000000000e+00" cType="1" res="-1.7831234261393547e-02" rms="3.8539233803749084e-01" purity="6.3612979650497437e-01" nType="-99"/>
            </Node>
            <Node pos="r" depth="1" NCoef="0" IVar="-1" Cut="0.0000000000000000e+00" cType="1" res="-2.4866841733455658e-02" rms="3.3436164259910583e-01" purity="6.2481778860092163e-01" nType="-99"/>
          </Node>
        </BinaryTree>
        <BinaryTree type="DecisionTree" boostWeight="1.0000000000000000e+00" itree="37">
          <Node pos="s" depth="0" NCoef="0" IVar="4" Cut="4.0164918899536133e+00" cType="0" res="1.0338610038161278e-02" rms="1.6593456268310547e-01" purity="9.4764471054077148e-01" nType="0">
            <Node pos="l" depth="1" NCoef="0" IVar="6" Cut="7.5090423226356506e-02" cType="1" res="1.5500435605645180e-02" rms="1.1124937981367111e-01" purity="9.8696708679199219e-01" nType="0">
              <Node pos="l" depth="2" NCoef="0" IVar="12" Cut="1.5110172331333160e-01" cType="1" res="1.6293676570057869e-02" rms="1.0165768116712570e-01" purity="9.8930490016937256e-01" nType="0">
                <Node pos="l" depth="3" NCoef="0" IVar="-1" Cut="0.0000000000000000e+00" cType="1" res="3.3944368362426758e-02" rms="9.3432180583477020e-02" purity="9.9101680517196655e-01" nType="-99"/>
                <Node pos="r" depth="3" NCoef="0" IVar="-1" Cut="0.0000000000000000e+00" cType="1" res="5.8868490159511566e-03" rms="1.7743368446826935e-01" purity="9.6657669544219971e-01" nType="-99"/>
              </Node>
              <Node pos="r" depth="2" NCoef="0" IVar="-1" Cut="0.0000000000000000e+00" cType="1" res="-1.0375497862696648e-02" rms="3.0904513597488403e-01" purity="8.9054375886917114e-01" nType="-99"/>
            </Node>
            <Node pos="r" depth="1" NCoef="0" IVar="12" Cut="7.6369233429431915e-02" cType="1" res="-8.2403672859072685e-03" rms="2.8574627637863159e-01" purity="8.0611151456832886e-01" nType="0">
              <Node pos="l" depth="2" NCoef="0" IVar="2" Cut="7.5712144374847412e-01" cType="0" res="7.6170288957655430e-03" rms="2.5814670324325562e-01" purity="8.4304445981979370e-01" nType="0">
                <Node pos="l" depth="3" NCoef="0" IVar="-1" Cut="0.0000000000000000e+00" cType="1" res="1.0505202226340771e-02" rms="2.3516197502613068e-01" purity="9.1806662082672119e-01" nType="-99"/>
                <Node pos="r" depth="3" NCoef="0" IVar="-1" Cut="0.0000000000000000e+00" cType="1" res="-1.4419120736420155e-02" rms="3.6371096968650818e-01" purity="3.9164668321609497e-01" nType="-99"/>
              </Node>
              <Node pos="r" depth="2" NCoef="0" IVar="5" Cut="1.6020990371704102e+01" cType="1" res="-4.4931266456842422e-02" rms="3.3831328153610229e-01" purity="7.2065585851669312e-01" nType="0">
                <Node pos="l" depth="3" NCoef="0" IVar="-1" Cut="0.0000000000000000e+00" cType="1" res="-1.3148806989192963e-02" rms="3.2433938980102539e-01" purity="7.7307319641113281e-01" nType="-99"/>
                <Node pos="r" depth="3" NCoef="0" IVar="-1" Cut="0.0000000000000000e+00" cType="1" res="-3.4749966114759445e-02" rms="3.6218801140785217e-01" purity="6.1364805698394775e-01" nType="-99"/>
              </Node>
            </Node>
          </Node>
        </BinaryTree>
        <BinaryTree type="DecisionTree" boostWeight="1.0000000000000000e+00" itree="38">
          <Node pos="s" depth="0" NCoef="0" IVar="4" Cut="2.0224888324737549e+00" cType="0" res="9.3461126089096069e-03" rms="1.6570740938186646e-01" purity="9.4764471054077148e-01" nType="0">
            <Node pos="l" depth="1" NCoef="0" IVar="11" Cut="1.3992406427860260e-01" cType="1" res="1.1782005429267883e-02" rms="1.3503251969814301e-01" purity="9.7927474975585938e-01" nType="0">
              <Node pos="l" depth="2" NCoef="0" IVar="7" Cut="6.4152997732162476e-01" cType="1" res="1.5445795841515064e-02" rms="1.0850344598293304e-01" purity="9.8680251836776733e-01" nType="0">
                <Node pos="l" depth="3" NCoef="0" IVar="-1" Cut="0.0000000000000000e+00" cType="1" res="3.0977973714470863e-02" rms="1.0144211351871490e-01" purity="9.8864066600799561e-01" nType="-99"/>
                <Node pos="r" depth="3" NCoef="0" IVar="-1" Cut="0.0000000000000000e+00" cType="1" res="-9.9290581420063972e-03" rms="2.5051626563072205e-01" purity="9.2266815900802612e-01" nType="-99"/>
              </Node>
              <Node pos="r" depth="2" NCoef="0" IVar="4" Cut="5.0239877700805664e+00" cType="0" res="6.3470908207818866e-04" rms="1.9423180818557739e-01" purity="9.5637100934982300e-01" nType="0">
                <Node pos="l" depth="3" NCoef="0" IVar="-1" Cut="0.0000000000000000e+00" cType="1" res="1.3793026097118855e-02" rms="1.5803903341293335e-01" purity="9.7337609529495239e-01" nType="-99"/>
                <Node pos="r" depth="3" NCoef="0" IVar="-1" Cut="0.0000000000000000e+00" cType="1" res="-2.3752056062221527e-02" rms="2.8136542439460754e-01" purity="8.9959865808486938e-01" nType="-99"/>
              </Node>
            </Node>
            <Node pos="r" depth="1" NCoef="0" IVar="8" Cut="7.1117496490478516e-01" cType="0" res="-2.3329349234700203e-02" rms="3.8737517595291138e-01" purity="5.2335453033447266e-01" nType="0">
              <Node pos="l" depth="2" NCoef="0" IVar="-1" Cut="0.0000000000000000e+00" cType="1" res="5.7439273223280907e-03" rms="3.7966129183769226e-01" purity="6.2295556068420410e-01" nType="-99"/>
              <Node pos="r" depth="2" NCoef="0" IVar="5" Cut="1.3019490242004395e+01" cType="1" res="-4.7466918826103210e-02" rms="3.8975125551223755e-01" purity="4.6556159853935242e-01" nType="0">
                <Node pos="l" depth="3" NCoef="0" IVar="-1" Cut="0.0000000000000000e+00" cType="1" res="-3.2443585805594921e-03" rms="3.8716629147529602e-01" purity="5.7672148942947388e-01" nType="-99"/>
                <Node pos="r" depth="3" NCoef="0" IVar="-1" Cut="0.0000000000000000e+00" cType="1" res="-2.2720653563737869e-02" rms="3.8917288184165955e-01" purity="3.6826702952384949e-01" nType="-99"/>
              </Node>
            </Node>
          </Node>
        </BinaryTree>
        <BinaryTree type="DecisionTree" boostWeight="1.0000000000000000e+00" itree="39">
          <Node pos="s" depth="0" NCoef="0" IVar="1" Cut="5.2145427465438843e-01" cType="1" res="8.4471236914396286e-03" rms="1.6551785171031952e-01" purity="9.4764471054077148e-01" nType="0">
            <Node pos="l" depth="1" NCoef="0" IVar="1" Cut="2.1339714527130127e-02" cType="1" res="9.6287233754992485e-03" rms="1.6033947467803955e-01" purity="9.5391601324081421e-01" nType="0">
              <Node pos="l" depth="2" NCoef="0" IVar="11" Cut="2.0768833160400391e-01" cType="1" res="1.2172656133770943e-02" rms="1.4736598730087280e-01" purity="9.6073490381240845e-01" nType="0">
                <Node pos="l" depth="3" NCoef="0" IVar="-1" Cut="0.0000000000000000e+00" cType="1" res="2.1831596270203590e-02" rms="1.3456724584102631e-01" purity="9.6566545963287354e-01" nType="-99"/>
                <Node pos="r" depth="3" NCoef="0" IVar="-1" Cut="0.0000000000000000e+00" cType="1" res="-6.5992861054837704e-03" rms="2.2903785109519958e-01" purity="9.1817444562911987e-01" nType="-99"/>
              </Node>
              <Node pos="r" depth="2" NCoef="0" IVar="4" Cut="3.0074963569641113e+00" cType="0" res="-1.2862140312790871e-02" rms="2.4584345519542694e-01" purity="8.9363008737564087e-01" nType="0">
                <Node pos="l" depth="3" NCoef="0" IVar="-1" Cut="0.0000000000000000e+00" cType="1" res="9.1621512547135353e-03" rms="1.5794029831886292e-01" purity="9.7335070371627808e-01" nType="-99"/>
                <Node pos="r" depth="3" NCoef="0" IVar="-1" Cut="0.0000000000000000e+00" cType="1" res="-2.4868708103895187e-02" rms="4.2862558364868164e-01" purity="6.0390841960906982e-01" nType="-99"/>
              </Node>
            </Node>
            <Node pos="r" depth="1" NCoef="0" IVar="-1" Cut="0.0000000000000000e+00" cType="1" res="-2.3270025849342346e-02" rms="3.3239650726318359e-01" purity="6.2481778860092163e-01" nType="-99"/>
          </Node>
        </BinaryTree>
        <BinaryTree type="DecisionTree" boostWeight="1.0000000000000000e+00" itree="40">
          <Node pos="s" depth="0" NCoef="0" IVar="4" Cut="4.0164918899536133e+00" cType="0" res="7.6218107715249062e-03" rms="1.6534592211246490e-01" purity="9.4764471054077148e-01" nType="0">
            <Node pos="l" depth="1" NCoef="0" IVar="6" Cut="6.4462490379810333e-02" cType="1" res="1.2149428948760033e-02" rms="1.1117009818553925e-01" purity="9.8696708679199219e-01" nType="0">
              <Node pos="l" depth="2" NCoef="0" IVar="12" Cut="7.9148523509502411e-02" cType="1" res="1.3194779865443707e-02" rms="9.6895776689052582e-02" purity="9.9031591415405273e-01" nType="0">
